nep3 2 Ga O 
cutoff 6 4
n_max 10 8
basis_size 10 8
l_max 4 2 0
ANN 60 0
 -1.0359341e-02
  1.5474878e-01
  1.1719817e-02
 -9.3059683e-01
 -2.2215080e-01
  8.8183664e-02
 -5.4779216e-03
 -4.7427647e-02
 -5.1390010e-01
 -4.5034498e-01
  6.2570861e-03
  4.5990297e-03
  1.3611326e-01
 -1.2669723e-02
 -6.1671762e-03
  7.0701905e-02
 -4.3732347e-03
 -1.9171336e-01
  1.7822228e-02
 -1.0775551e-02
  3.7168064e-03
  4.2652469e-03
  1.4964208e-02
 -1.0182352e-02
 -4.3716695e-04
 -1.7926731e-03
  1.6670402e-02
  2.7934780e-02
  3.8365819e-02
  2.9355632e-02
 -4.0380638e-03
  2.9015807e-03
 -2.1836977e-02
 -6.6551758e-04
 -1.1548989e-03
  2.4416933e-02
  8.0076316e-03
 -6.1731949e-03
 -7.7778948e-03
  3.9213570e-03
 -1.6003789e-02
  2.2275965e-03
 -1.6360704e-02
 -2.6470104e-02
  6.2687481e-03
 -4.1075982e-03
  3.8831097e-03
 -7.1106013e-04
  3.8026692e-03
  1.4045347e-03
  2.2659842e-03
  1.0698797e-02
 -3.7989893e-03
 -4.6227155e-03
 -1.2059167e-02
 -2.4280697e-02
 -4.6544210e-03
  4.1016340e-01
  7.9659484e-02
  2.2611625e-01
 -4.6721545e-01
 -2.2138852e-01
 -6.2976241e-02
  4.1237968e-01
  3.5124812e-03
  6.6269979e-02
 -1.1701807e+00
  1.2067681e-02
  4.4768713e-02
 -3.4583248e-02
  2.8194048e-02
  2.5027214e-02
  2.6412345e-02
  2.1747975e-02
 -3.9282539e-03
 -5.0114882e-03
 -4.0349475e-04
 -1.1770887e-02
  3.0204089e-02
 -3.0052487e-02
 -6.9339699e-03
  1.3531024e-02
 -2.2204379e-02
  4.0468629e-03
  1.2673005e-02
  2.3763776e-02
  7.3323166e-03
  2.8276248e-03
 -5.9901275e-02
  8.1957160e-03
  1.0525039e-03
 -5.5823463e-01
 -4.9464609e-03
 -6.3810218e-03
  2.5344836e-03
  9.1331806e-03
 -1.3570605e-02
  5.2059079e-03
  1.4215882e-03
 -1.1414204e-02
 -3.6785156e-02
  1.6537610e-02
  2.8806243e-03
  1.7548656e-03
 -1.6227895e-03
 -2.2361005e-02
 -1.5624423e-02
 -4.9155140e-03
 -3.1500246e-02
 -4.6485044e-02
  1.7299399e-02
  1.1664743e-02
 -1.1695378e-02
  8.2617201e-02
  1.9487828e-02
 -1.2998631e-02
  4.4715945e-03
  1.1347103e-01
 -5.6105140e-03
 -6.3667819e-02
 -1.1045376e-01
  5.0740107e-03
 -8.6322613e-04
 -1.8055720e-02
 -1.6643975e-03
  4.2110058e-03
  1.8302426e-02
  2.8417762e-02
  4.0527089e-03
  3.5660069e-02
 -5.0397657e-02
  2.4075294e-03
 -3.4500472e-02
 -6.9636870e-03
 -3.7480995e-02
 -3.3835198e-03
 -7.5473874e-03
  9.8018102e-02
 -2.4752250e-02
 -8.8430338e-02
 -1.1517502e-02
 -1.2490186e-03
 -4.1341133e-02
  2.5223810e-02
  1.1895173e-02
  5.6465128e-03
 -4.1082762e-03
  2.1171747e-02
  1.4014237e-02
 -6.2872441e-03
 -7.3027909e-03
 -1.9698050e-02
  6.2909918e-03
 -2.3832030e-03
  1.6561275e-02
 -3.6122054e-03
 -9.1475025e-03
 -1.1861800e-02
 -3.2898478e-02
  1.1231597e-03
  8.3971322e-03
  1.2972880e-02
 -3.7436832e-03
  1.9058824e-02
  8.8808415e-03
 -5.5040168e-03
 -7.6129776e-03
 -7.1011763e-03
  3.8873357e-01
  3.7266251e-01
 -7.5904005e-03
  6.6138148e-01
 -1.6755719e-01
 -7.4089277e-01
 -7.9908264e-01
 -1.6737457e-01
 -8.2918644e-02
  1.0597715e-03
  7.9021133e-02
 -2.1968396e-01
 -1.0228601e-02
  6.8349339e-02
  3.0842647e-02
 -1.5604863e-01
 -4.9588501e-01
  6.1957993e-02
 -1.8906951e-01
 -4.7788724e-01
  4.5552678e-02
  2.1017201e-03
  3.9037582e-01
 -2.4060106e-01
 -1.6440073e-02
 -6.3375622e-02
 -4.7751362e-03
  2.9086461e-02
  3.4777182e-01
  5.3527123e-01
 -6.1417323e-01
 -6.8419948e-03
 -2.4700174e-03
 -2.1386458e-01
  1.6021149e-01
 -3.2147571e-01
 -2.5271079e-01
  1.5380270e-02
  5.0423063e-02
 -6.0948598e-01
 -9.7136945e-02
 -2.0118907e-02
 -1.9321946e-02
 -2.3168817e-01
 -1.8290827e-02
 -1.2473548e-02
 -6.5197879e-01
 -5.7268661e-01
  4.4903994e-02
  2.4859603e-01
 -3.0690846e-01
  8.2768783e-02
 -1.3197735e-01
 -2.3298638e-01
  1.6818064e-01
 -1.1863701e-02
  1.4003588e-01
  1.4961871e+00
  9.6833539e-01
  7.7799040e-01
 -4.3184045e-01
 -6.7785245e-01
  9.8893696e-01
  1.6713598e-01
 -3.1208670e-01
  5.5232620e-01
  2.2130881e-01
  2.6036459e-01
 -6.4498627e-01
  2.7374053e-01
  1.1457032e-02
 -6.5122736e-01
 -1.8644314e-02
  3.0094054e-01
  2.9004180e-01
  4.0774010e-02
 -1.0524422e-02
  1.8275627e-01
 -1.2440250e-01
  1.2561158e-02
  7.2400426e-03
 -8.6435834e-03
  1.8506158e-02
 -3.2157943e-02
  1.3089922e-01
 -9.7295921e-03
  4.7486704e-03
  1.1192297e-02
  8.2314140e-01
  7.7585210e-03
  5.0948523e-03
 -9.6339308e-02
 -2.6092908e-01
  1.4881168e-02
  3.5248539e-01
  2.8309895e-02
  2.3393773e-02
 -2.2962792e-01
  5.6851846e-01
 -6.6634071e-01
  5.0998367e-03
  1.9713130e-02
  4.1027800e-03
  4.3172343e-03
 -9.8434100e-03
  2.6776299e-01
  2.0788223e-02
 -1.1008200e-03
  2.7125550e-02
 -1.7982742e-02
 -2.7223960e-03
 -7.2047664e-03
 -1.3684064e-02
  1.3281326e-02
  2.9134057e-02
 -5.4933801e-03
  7.0836702e-03
  2.1861140e-03
  7.7214385e-03
  3.1232769e-02
 -2.6151999e-03
  5.3337594e-03
 -1.1895524e-01
  1.0591950e-03
 -8.4541487e-03
  1.0164304e-02
 -3.3680035e-03
  6.4188149e-03
  3.9393147e-03
 -1.2508471e-02
 -5.3113676e-03
 -3.6042361e-03
  1.0640812e-02
 -1.4497665e-03
 -2.8022153e-03
 -4.7754226e-03
  2.3099617e-03
 -1.9213770e-02
  2.9908929e-03
  5.4560658e-03
  3.0549174e-02
  8.7285927e-03
 -3.3575718e-03
 -1.7025650e-02
  8.5411426e-03
  4.4777105e-04
 -8.4388508e-03
 -2.4706459e-02
  3.1878993e-02
  8.0685942e-03
 -1.7944394e-02
  2.8333243e-02
 -4.1769925e-03
  6.3719000e-03
  1.5591483e-03
  4.8611155e-03
  6.7112267e-02
 -1.5573203e-02
 -1.7654452e-02
  1.4870057e-02
 -1.9465081e-02
 -2.0564331e-02
  1.2819278e-02
  2.6430262e-03
  1.5908407e-02
  2.3285113e-02
  3.9633319e-02
 -2.3363488e-02
  2.9390469e-01
 -5.7393491e-02
  1.9116870e-01
 -1.1143372e+00
 -2.1781487e-02
  6.7089534e-01
  1.8194178e-02
  9.7208536e-01
  3.4249884e-01
 -2.9433301e-02
 -5.4134727e-01
 -7.0209028e-03
 -3.9285637e-02
  3.4055513e-01
 -1.5783384e-03
 -1.8994187e-03
 -3.1459056e-02
 -4.4486713e-02
 -7.0076371e-03
 -1.4600746e-01
  6.5717455e-03
  7.0735859e-03
 -1.6773216e-01
 -1.8059231e-02
 -7.7188285e-03
 -1.0237354e-02
  2.6835978e-01
 -1.3208129e-02
 -3.1835097e-04
 -3.0029193e-02
  1.0809211e-01
 -2.5647129e-03
 -2.0307172e-03
 -7.1842973e-03
 -9.8269377e-03
 -3.1104570e-02
  3.7517317e-02
  4.1285404e-03
  1.1153976e-02
  4.0589287e-03
 -1.1278036e-02
 -2.7858173e-03
 -9.1768298e-03
 -2.0308748e-03
  1.9208975e-02
 -2.3792464e-02
 -5.7103813e-02
  5.7133930e-03
  3.7536318e-03
  2.8532084e-02
 -7.7688787e-03
  1.0813121e-05
  9.6890489e-03
 -3.9271386e-03
  5.0221169e-03
 -2.1872788e-03
 -4.6331786e-02
 -1.4095502e-01
  4.6185918e-02
 -2.0853317e-01
 -5.7197940e-03
 -5.7911152e-01
  5.4870844e-02
 -4.5221262e-02
 -6.1796922e-03
  7.0418097e-02
 -4.6338574e-03
 -4.8149388e-02
  1.2669253e-02
 -1.3963299e-02
  1.3089986e-02
 -1.7085034e-01
  4.3901004e-02
  1.8384241e-02
  2.7166774e-02
  3.7978238e-03
 -3.9646016e-03
 -3.2937115e-03
  1.0497810e-02
 -6.9617131e-04
 -1.4085321e-02
  7.5258695e-02
 -3.1226132e-02
  1.6013400e-03
  1.1909509e-02
  1.1639794e-02
 -9.7962301e-03
  6.0214526e-03
 -1.9170204e-03
 -5.7082687e-04
 -7.7402196e-04
 -2.0507718e-03
 -9.6612321e-03
  2.6826328e-03
 -2.8691388e-04
 -4.7524977e-02
 -1.7103471e-03
 -9.1962358e-03
  3.6289459e-03
 -1.1787300e-02
  4.7292281e-03
 -1.7870756e-02
 -1.5318014e-02
  2.2916198e-03
  1.0305444e-02
  2.0951552e-02
  8.0703078e-03
 -1.0236032e-02
 -2.6810832e-02
  4.0219735e-02
 -1.5553564e-02
 -5.3637829e-03
  4.9619412e-01
 -1.0125280e-02
  9.1097802e-02
 -2.4155006e-01
  4.8497446e-02
 -8.7643147e-02
 -3.0852279e-01
 -5.4299462e-01
 -3.4068134e-01
  4.2489246e-02
  1.2630682e-01
 -5.6934088e-02
  3.8745135e-02
 -1.7611687e-01
 -1.5755155e-03
  1.4305277e-02
  4.4025243e-03
 -4.3687448e-02
  3.9390582e-03
  2.6533148e-01
 -1.5008704e-02
  4.8109651e-02
  4.5308247e-03
 -8.9833802e-03
 -5.4209060e-03
 -7.2298817e-02
 -5.0851278e-04
 -1.2692390e-02
 -3.5429042e-04
 -3.2761094e-01
 -2.6347775e-03
 -1.5723197e-01
  2.4593787e-02
  1.1829473e-02
 -2.5254658e-01
  1.2520672e-02
 -3.6650427e-02
 -9.3280189e-03
  1.3666879e-02
  9.7741202e-02
 -7.2097681e-03
  4.3012857e-02
  7.6732732e-02
 -7.6146685e-03
  4.4911787e-02
 -1.8991956e-02
  2.9718390e-01
 -1.3915366e-02
 -3.5881288e-03
  1.0365730e-01
  1.8491575e-02
 -1.6140012e-02
  3.1685203e-02
 -3.4484249e-03
  2.4337170e-03
  7.8437924e-03
 -6.8345088e-01
 -2.7990139e-01
 -3.4219748e-01
  1.5640253e-01
 -1.0575534e-01
  1.7257446e-01
 -1.0556404e-01
  4.6776347e-02
 -1.8880834e-01
 -1.9364577e-02
  1.5774448e-01
  6.9410734e-02
 -2.0192267e-02
  1.4675368e-01
  3.2377339e-03
  9.6999705e-02
 -3.4686692e-02
 -3.2583126e-03
 -8.4228059e-03
  1.7693229e-02
 -8.4697269e-03
  2.3706753e-02
 -1.1391675e-01
 -2.6921805e-02
 -3.4736670e-03
 -3.3640384e-03
 -7.3379697e-03
  3.1310566e-02
 -1.4397500e-03
 -1.6346203e-02
 -5.5525503e-03
 -7.1149268e-03
 -1.1485108e-01
  9.6140085e-03
  1.1004663e-02
 -1.2095752e-02
  1.1563014e-02
  2.3554510e-03
 -2.1681841e-03
 -1.5384685e-02
  7.8147911e-03
  2.6444655e-02
  2.2636825e-02
 -2.1658517e-02
  3.0113781e-02
  9.1368929e-03
  8.9609679e-03
  4.4863806e-03
 -1.5688026e-02
  1.1383285e-02
  2.1922616e-03
 -2.1605948e-02
 -1.6890022e-03
 -9.3588114e-02
 -1.3356165e-03
  1.4775040e-02
  3.9863458e-01
  1.2366387e-01
 -6.8948828e-02
  3.5229507e-01
  4.1988495e-01
  1.2617508e+00
 -5.6631226e-02
  4.5402849e-01
  1.5655829e+00
 -6.4290607e-01
  4.7523096e-02
  2.9452233e-02
 -3.0520603e-01
 -1.3720739e-01
 -7.3911107e-01
  1.1856840e-01
 -7.9265080e-02
 -1.8996894e-01
 -1.1341570e-02
 -4.4944948e-01
  4.9845660e-03
 -1.1450311e-03
  2.1376280e-01
 -1.2087259e-03
  3.5161862e-01
  7.6823913e-02
 -4.4883347e-01
 -3.4201071e-03
  4.5266041e-01
 -1.2985057e-01
 -9.3284901e-04
 -9.0737009e-01
  3.5534918e-02
  5.7070547e-01
  8.6718187e-02
 -7.0678294e-01
  1.6191842e-02
 -3.8638169e-01
  2.8529052e-02
  5.2314424e-03
  1.1496667e-01
 -3.7884369e-01
 -9.1794189e-03
 -9.5603213e-02
 -1.3827248e-01
  1.4239084e-03
 -1.7212558e-01
 -1.2768877e-02
 -3.8321358e-03
 -2.0550878e-01
 -2.0779582e-02
  4.0240847e-02
 -2.8401993e-02
  1.4668237e-01
 -2.1639194e-02
 -5.1857699e-03
  3.1157190e-02
 -6.2792655e-04
  1.8003821e-02
  6.6035491e-01
 -1.4752490e-02
 -3.7795859e-03
 -3.0766819e-02
 -5.5922521e-03
 -1.6034538e-02
 -2.6713880e-03
  3.3789489e-03
 -1.7715534e-03
  2.7943803e-03
  3.3472122e-03
  1.1214653e-02
  4.6482678e-03
 -1.7510869e-02
  1.6618958e-02
  7.5331479e-03
  7.3288633e-03
 -9.7217690e-04
  1.3345877e-02
  1.7796914e-03
 -6.4063664e-03
 -5.7544783e-02
 -2.3902265e-02
 -1.4868263e-02
  1.5801128e-02
 -5.5588260e-03
 -1.8137958e-02
 -1.7503015e-03
  2.5131339e-02
  2.1407055e-04
  5.6224409e-03
  1.8059077e-02
  1.4761532e-02
  1.8502124e-02
 -1.5350311e-02
  4.2949189e-03
  2.0927371e-04
  1.4524389e-02
 -4.7841787e-02
  1.7196687e-02
 -5.5706045e-03
  1.4188992e-02
  3.1282391e-02
 -1.3899107e-02
  3.2531939e-02
  1.3982389e-02
 -3.9031231e-03
  8.4563699e-03
 -5.2467203e-03
  4.5615295e-03
 -3.1271264e-01
 -1.4520530e-03
 -3.8523658e-04
 -9.8435795e-03
  3.6111448e-02
 -5.7195090e-03
  4.2929430e-02
  1.6936690e-02
 -3.2347112e-03
 -3.9149918e-02
 -5.6864135e-02
  2.4594949e-04
  4.6846647e-02
  1.6561601e-02
 -4.2123860e-04
 -9.5493859e-03
 -1.0158887e-02
 -3.7695882e-03
  9.2912680e-03
 -6.5798149e-02
  3.1335536e-02
  2.0566143e-03
  1.6859755e-02
 -1.8366713e-02
  7.3969560e-03
 -1.4673311e-03
  2.8492284e-03
  2.1658221e-03
  1.0490180e-02
  1.9488350e-02
 -1.4185568e-02
  1.1744453e-02
 -7.5226449e-03
 -9.3770418e-03
  2.6184565e-04
 -1.1351313e-03
 -1.3295657e-03
  2.4466307e-03
 -2.0103240e-02
 -2.3048739e-03
  2.5474366e-02
 -2.3681778e-03
  2.4971511e-02
  4.2500477e-03
  1.7311554e-02
  2.2055743e-02
  6.0691619e-03
  1.7770665e-04
  3.7099042e-03
 -2.7119778e-02
 -2.5723772e-03
 -4.1259807e-03
  4.6863570e-04
  1.2484404e-02
  1.2968408e-02
 -7.4273674e-03
  7.8185461e-05
 -5.1478571e-03
  5.4842308e-03
  3.7119552e-01
 -3.2120663e-01
 -9.2121792e-01
  3.4349105e-01
  1.5803561e-01
 -1.4873594e+00
  1.1066456e-01
 -3.1906062e-01
  7.0182845e-02
  1.2520818e-01
 -6.7390555e-01
 -2.9152578e-01
 -1.8763650e-02
  1.0231987e+00
 -2.0941930e-01
  1.0430086e-02
  5.1307774e-01
 -6.8283284e-01
 -3.5857746e-01
 -1.2570557e-01
 -1.4805202e-01
 -5.6596298e-02
 -1.8125775e-01
 -2.2563679e-02
  2.1620499e-01
 -5.1893243e-03
  2.3234090e-02
 -1.2995075e-01
  1.8969439e+00
 -5.1303416e-01
  4.7637463e-02
  6.9737725e-02
  1.8070970e-02
  1.8497409e-02
 -5.2846917e-03
 -2.3583143e-03
  6.8421227e-01
  2.2197269e-02
 -3.0393785e-01
 -5.5996124e-03
 -3.0228108e-01
  1.6102463e-02
 -7.5354939e-03
  8.2540149e-03
 -3.9314870e-02
 -3.0187914e-02
  1.4106695e-01
 -7.4892588e-02
  9.9830125e-03
  5.1750976e-01
  1.0351030e-01
  1.1702626e-02
 -5.4214429e-03
  5.7102866e-02
 -3.5090465e-03
 -1.0312779e-02
  1.5237804e-02
 -4.1210803e-01
  3.4856007e-02
  3.6653921e-02
 -9.8987883e-03
 -4.6137415e-02
 -3.5759249e-01
 -2.4038615e-02
 -8.6378735e-03
  8.7105207e-02
  1.4057955e-01
  2.7422537e-03
 -1.6229453e-02
 -3.1926814e-01
 -1.8785341e-02
  2.5420147e-01
 -1.1042883e-01
 -1.5122852e-01
  7.4749966e-03
  8.9146886e-03
  5.6759740e-04
  9.1815494e-02
 -7.9891309e-03
  1.7133147e-01
 -3.4704179e-02
 -5.1742155e-02
  3.1131214e-02
  1.3374530e-01
  2.1855010e-02
 -2.0820848e-03
 -5.0382201e-02
 -2.0052277e-01
 -2.3121070e-02
  3.7399569e-01
 -1.1355101e-02
  1.0092502e-02
  2.6990842e-02
 -5.2778195e-03
  5.9288689e-03
  4.0835284e-02
 -2.1296680e-02
 -1.7240260e-02
  1.5524900e-01
 -9.3838945e-03
  2.6129171e-02
  1.6122137e-04
  2.3572782e-02
  2.4501210e-02
  3.3635437e-03
  2.6416686e-01
  1.3951612e-02
 -2.1006443e-02
  8.6103100e-03
 -4.8644841e-03
  1.1814272e-02
 -1.3944145e-03
  9.8079955e-04
 -1.9831806e-03
 -2.5885603e-03
  2.6629002e+00
  9.4929533e-03
 -1.2906398e-01
 -1.3672384e-02
  1.8714761e-02
  2.1781507e-03
  2.2354387e-02
 -1.9123605e-02
 -1.0999255e-03
  1.1748524e-02
  3.8878089e-03
  2.6285827e-02
  2.9390492e-03
  2.1640728e-03
  9.8063322e-03
 -4.3798694e-03
 -4.2093373e-03
  4.3191519e-03
  7.2477651e-01
 -5.3563077e-02
 -6.1801719e-03
 -1.8472973e-02
 -7.8871250e-03
 -1.2766514e-02
  2.5287701e-03
 -3.7424400e-02
  1.8909306e-04
 -4.0528621e-03
  5.4801989e-04
  2.0846431e-03
 -2.2749299e-02
 -5.3623784e-03
 -1.8395334e-02
 -9.2296097e-03
 -8.1420671e-03
 -1.7872915e-02
  1.8027576e-03
 -1.1796698e-02
 -7.0697898e-03
 -1.2220267e-02
  5.3977594e-03
  1.1117136e-02
 -8.8895150e-03
 -4.4609425e-03
  1.5083773e-02
  4.7563314e-03
  3.5807793e-03
 -2.5586182e-02
 -4.3890588e-03
  4.9779397e-03
 -5.4465715e-02
  1.6027060e-03
 -8.6402601e-01
  1.9766126e-02
 -3.2884120e-03
  8.4120324e-03
  1.9717034e-02
 -1.3606439e-03
 -6.3417060e-03
 -2.3394194e-02
  9.9725477e-02
 -1.7063363e-02
 -3.9223429e-05
 -2.5191579e-02
  8.3374865e-03
  2.2212768e-02
 -2.1073522e-02
  9.9033481e-03
 -1.2023318e-02
  7.6648062e-03
 -1.4274424e-02
  1.1661351e-03
  3.6140671e-03
 -1.1654521e-03
  5.5552926e-05
 -1.6431250e-02
  1.1891394e-02
  2.6356974e-03
  2.2240968e-03
 -6.2668137e-02
  4.3021075e-02
 -1.0889225e-02
  1.2460879e-02
 -6.5710768e-02
  8.2916347e-03
  1.9780675e-02
  4.6614278e-03
 -1.1706337e-02
 -3.9252825e-02
 -1.8845024e-02
 -1.5579686e-03
 -1.5018623e-02
 -7.8768488e-03
 -2.7535636e-02
 -9.2575897e-04
 -2.8277615e-02
 -9.2016254e-03
  6.0204784e-03
  2.5960108e-02
 -1.9600175e-02
 -1.3162252e-02
  1.2714032e-02
  1.4660653e-03
 -1.1587773e-02
 -2.3630528e-02
  1.6809773e-02
 -1.3428029e-02
 -5.3270985e-03
 -6.7942790e-03
  7.1477443e-01
  5.1299554e-01
  6.4985907e-01
  2.9900429e-01
  4.9457937e-02
 -3.3855766e-01
  6.2721634e-01
  2.4012826e-01
  7.1807140e-01
 -3.2621258e-01
 -6.6904649e-02
  9.2026843e-03
  3.2697445e-01
 -3.2501224e-01
 -1.3872723e-02
  2.3543398e-01
  1.1921360e-03
  3.1162894e-03
 -3.6904264e-02
 -9.0279855e-02
  1.7958449e-02
  3.7511803e-02
  4.0956369e-01
  1.5640629e-02
  2.0783374e-01
 -2.0409189e-02
  4.8462170e-01
  1.5338024e-02
 -3.6123040e-01
 -3.6868015e-01
  9.2394534e-05
  9.0282522e-02
 -9.6018754e-02
 -4.1098138e-03
 -9.7352952e-02
  2.4753584e-01
 -1.6249056e-01
 -1.8161197e-01
 -1.3237293e-01
  7.2722859e-03
 -7.1704663e-02
 -1.9540361e-01
 -9.9716252e-03
 -1.1955546e-02
  2.1689332e-03
  2.9474001e-02
  2.1087056e-02
 -5.5752997e-03
 -1.6283244e-03
  8.6663991e-02
  7.0316173e-02
 -1.0129316e-03
  1.1048872e-01
  4.7947918e-03
  9.3363039e-03
 -2.4621892e-03
  1.6234408e-01
 -2.9303288e-01
  7.4326396e-03
  9.5115006e-03
 -2.3548580e-03
  3.8749087e-01
 -2.1383747e-01
 -5.2765023e-02
 -1.7467704e-01
  2.4258567e-02
 -2.9814982e-01
  1.2727074e-01
  1.6973820e-01
 -8.3648756e-02
 -5.8258665e-03
  1.5208553e-01
  1.0813508e-02
 -2.5982368e-03
 -1.5517164e-02
 -3.1661835e-02
 -1.8832501e-02
  7.1899449e-03
  9.5058454e-04
  1.0699627e-02
 -8.4100093e-04
 -9.1272164e-03
 -1.3139416e-02
 -5.3049340e-03
 -8.1578717e-03
 -4.1076550e-03
 -3.9971592e-03
 -7.7726129e-03
 -1.5649882e-01
  2.0901278e-02
  2.8892092e-03
 -9.7633703e-03
 -1.3796372e-02
  7.1165495e-04
 -4.3613100e-03
 -8.6566573e-03
  8.0387406e-03
  6.8843283e-02
  2.4795838e-02
 -6.5700030e-03
  2.5613450e-03
 -5.9058741e-03
  5.1652934e-02
  5.4401881e-03
 -1.8081281e-02
  2.3635544e-02
  1.1505656e-02
 -2.9063730e-03
  1.0901256e-02
  2.1102978e-03
 -2.3555157e-03
  2.0456204e-02
 -8.2357571e-02
  3.6909238e-01
  1.7031935e+00
  1.5123980e+00
  2.9082086e+00
 -3.6593366e-01
 -4.9048467e-03
 -1.0936848e+00
  7.1957529e-01
 -6.0850251e-01
 -1.6451274e-01
  9.9823542e-02
 -7.7857301e-02
  2.8095263e-01
 -8.4364802e-01
 -5.5710059e-02
 -5.7731584e-02
 -6.3038975e-01
 -6.9414419e-01
  9.5277600e-02
  6.9666141e-01
 -7.6524213e-02
 -4.8907673e-01
  1.1744332e-02
 -1.0122410e+00
 -6.2003952e-02
 -5.8035874e-01
  5.5271667e-01
 -1.7455457e-02
  3.8490149e-01
 -4.5630535e-01
 -8.5665035e-01
 -3.2548681e-01
 -1.6564667e-01
 -1.4025201e-01
 -4.2930830e-01
 -2.0622338e-01
  2.0703366e-02
 -6.1560976e-03
 -8.5701817e-01
  8.0997425e-01
 -2.2580886e+00
  2.6047681e-02
 -5.2028972e-01
 -1.4358875e-04
 -1.4669167e-01
 -6.9804192e-01
 -3.8564015e-02
  1.3937471e-03
 -5.0145853e-02
 -5.7025817e-03
  7.0485868e-03
 -2.6338574e-02
  6.4688507e-03
  1.8849759e-03
 -5.4445909e-03
  9.5767811e-02
  7.7520782e-01
  2.2119813e-02
  6.5527625e-02
  9.0116658e-04
  1.3502058e-02
 -4.4130832e-03
 -2.6888525e-01
  2.3731399e-02
  3.2826599e-02
 -1.1697928e-01
  2.3856417e-03
  4.0412601e-03
 -1.4755789e-02
  1.3835691e-01
  3.0525325e-02
  1.6452381e-03
 -9.0913940e-04
 -5.1115272e-03
  1.8117260e-03
  3.2950457e-02
  4.1316077e-02
 -1.5547778e-02
  8.4750820e-03
  6.2478073e-03
 -4.1750683e-03
 -7.8360466e-03
  2.8214380e-03
 -9.9640228e-03
  2.1044545e-02
  8.1443340e-03
 -4.0053297e-04
 -1.4378458e-03
  9.2730140e-03
  4.8324978e-03
  5.6560524e-04
 -2.1890912e-03
 -8.8425435e-04
  8.6245993e-03
 -6.3910624e-03
  8.0486335e-04
  2.9329168e-02
  1.8852174e-02
 -8.0407215e-03
  1.2626787e-02
 -8.9982171e-03
 -5.7183206e-05
 -1.0162916e-03
 -1.1225262e-02
 -1.4622232e-02
 -5.2767843e-03
  1.4033890e-02
  2.1513696e-03
 -1.0291945e-02
  7.7865757e-03
 -6.2339148e-03
  2.9943790e-03
  2.5412819e-01
 -2.9858161e-02
  4.1275573e-01
 -3.7653465e-03
 -2.2342766e-02
 -6.1023462e-04
 -4.6451682e-01
  9.1901803e-03
  1.1213653e-01
  4.3199810e-01
  8.7735439e-03
 -3.6660894e-03
  1.2873061e-02
  1.5327638e-02
 -3.9417259e-03
  1.9200148e-02
 -9.2975572e-03
  1.0730756e-02
  1.1515287e-02
 -1.4877262e-02
 -1.4055309e-02
 -3.2838214e-02
 -4.3090624e-03
 -4.2340404e-04
  1.0726141e-02
 -1.1498804e-03
  3.1122719e-03
 -1.9192947e-02
  1.7921613e-03
 -3.0331347e-02
  1.2239700e-04
  1.7117897e-02
 -5.8019697e-03
  1.3439357e-03
  4.9901642e-03
  2.5417166e-02
 -9.0199071e-01
  1.4249127e-02
 -1.6653238e-02
 -3.3666561e-03
  2.5167614e-02
  1.0032784e-02
  2.1332268e-02
 -2.7644907e-03
 -1.0131968e-03
  3.8040716e-03
  1.1027491e-02
  1.2575928e-04
  8.6202407e-03
  3.5982109e-03
  1.2352714e-02
  2.5613292e-03
  1.6159983e-03
 -3.8642626e-02
 -3.5839067e-03
  4.6279469e-01
 -6.2837484e-03
 -2.5082905e-02
  1.1827561e+00
 -1.1902837e-01
 -1.3852253e+00
 -1.1119688e+00
 -4.5896491e-01
  2.2974627e+00
 -3.7175024e-01
 -1.3337386e+00
  2.8271003e-02
 -3.0908801e-02
 -2.0118223e-01
 -4.0408760e-01
 -1.3951910e-02
 -1.8893731e-01
 -2.6094748e-02
  2.7968097e-01
  2.6182804e-02
 -3.1003980e-03
  1.2721666e-02
  1.1567827e-02
 -1.1413369e-02
  1.0288633e-01
  4.0625390e-02
  2.0941550e-02
  1.6083442e-02
 -3.2380391e-02
 -2.8412318e-01
  1.0988442e-02
 -5.1050223e-03
  1.0612857e+00
  3.2208849e-02
  7.3974300e-03
  1.3411398e-01
  1.1296777e-02
  2.4919517e-01
 -1.8248150e-01
 -7.4068397e-02
 -6.1374170e-01
  4.4811335e-03
 -6.0974255e-02
 -3.8408913e-02
 -2.3400888e-02
 -4.2435445e-02
 -8.0833122e-02
 -1.6528254e-03
  1.0573496e-03
 -2.5944343e-01
  1.2292486e-01
 -7.5566731e-03
 -1.3900927e-02
 -1.5288669e-03
 -3.6815605e-03
  1.7710930e-02
  5.1030733e-02
 -2.7643055e-01
 -3.1804940e-01
  3.5093001e-01
  1.4645220e-03
  2.4640048e-01
 -1.3584207e-01
 -3.4364979e-03
 -1.9361664e-03
 -4.6420656e-03
 -1.7669986e-01
 -4.3858301e-02
  5.3358842e-03
 -6.7873718e-03
  4.4264741e-02
 -2.3222445e-02
 -8.8954112e-03
  1.6739346e-02
 -4.8206691e-03
  3.7779771e-02
  1.6285613e-02
  8.7563377e-03
  8.9791426e-03
 -3.9775064e-03
  1.2412222e-02
 -2.1705352e-02
  2.0629732e-02
 -3.9521111e-03
  3.6906581e-02
  9.8543148e-03
  5.1536057e-03
  2.3790938e-03
  1.0636506e-02
  2.6163135e-02
 -6.7941919e-02
 -4.2386651e-03
  6.5763444e-03
 -2.0281144e-03
 -1.8783631e-02
  6.9367830e-03
 -3.9134249e-02
  1.6068408e-02
  5.3439662e-03
  1.1245137e-01
 -1.2303412e+00
 -1.1780292e-02
  1.5979247e-02
 -1.4979222e-02
 -5.3538287e-01
  8.7376637e-03
 -1.7172804e-03
  2.2511948e-02
 -4.0940843e-03
  8.1610344e-03
  8.0741942e-03
 -3.1213637e-02
  6.0933467e-02
 -9.6474743e-01
  2.6208863e-01
  7.5474493e-02
 -7.8278214e-02
  6.3944116e-02
  3.4378871e-01
 -4.9631146e-01
  1.9841941e-02
 -8.6068821e-01
  5.3981817e-01
 -3.8862415e-02
 -1.3336003e-01
 -1.1108295e+00
  1.5827481e-02
 -2.1281686e-02
  1.6369749e-02
  1.3811071e-01
  4.0366920e-03
 -1.3619442e-02
 -2.1062719e-02
 -8.7979557e-03
  5.8157304e-03
  7.1001416e-03
  2.0256527e-01
  1.9299012e-02
  9.6124858e-03
  1.6963165e-02
  3.5983697e-02
 -1.2929669e-01
  3.2910835e-03
 -4.4694045e-01
 -6.1564818e-02
  1.4495623e-01
  1.1399943e-02
 -8.1821997e-03
 -1.7118610e-02
  1.0184113e-02
 -7.5410642e-03
 -8.6251378e-02
  6.7727908e-02
  2.1485049e-01
 -6.8585267e-03
  1.8895915e-02
 -2.1394789e-02
 -7.7543724e-03
 -6.1802547e-03
  9.1652414e-03
 -8.6672874e-03
 -3.5453714e-02
 -4.5449957e-02
  1.7462476e-03
 -2.0607856e-01
  1.7274406e-02
 -6.4188945e-03
 -1.0668447e-02
 -1.3250489e+00
  2.1102935e-01
  3.1019548e-01
 -1.8391129e-01
  1.1406827e+00
  1.1211453e-01
  7.4876049e-03
  9.6884660e-02
 -1.5799360e-02
  5.4121548e-01
  1.4770813e+00
  1.7240128e-01
  2.6497431e-02
 -7.3005855e-01
  5.5847140e-03
  5.5979919e-03
  2.6784878e-02
  5.2678502e-01
 -4.3032207e-02
  7.6750055e-02
  5.3108361e-02
  5.2816480e-01
  4.1458493e-01
  5.0263602e-01
  3.2632020e-01
  1.1210063e-01
 -4.0850332e-03
 -3.0822100e-02
  2.8995338e-01
 -1.7740513e-01
 -5.2096039e-02
 -3.7519184e-01
 -2.7684665e-01
 -7.8437477e-02
 -7.2593763e-02
  2.0285660e-02
 -4.3878323e-01
 -3.0850603e-03
 -1.1802590e+00
  7.4865818e-03
  6.6464506e-02
 -2.5892932e-02
  2.4845423e-02
  5.7678074e-03
  8.2135098e-03
  2.2161742e-01
  2.9254478e-01
  7.1269602e-02
 -2.0881314e-03
  1.6443770e-01
  4.9149850e-05
 -1.1591733e-02
 -9.6404310e-03
  9.2929741e-04
  3.7251168e-03
 -2.5236545e-02
 -1.5395582e-02
  1.3096958e-02
  4.8287392e-02
 -5.8181945e-04
 -7.8464691e-03
  1.7462313e-02
  3.8435129e-03
 -3.0263376e-03
 -1.3971498e-02
  7.5286916e-03
 -4.7885205e-04
  2.4372624e-02
 -1.2305441e-02
 -3.4839031e-03
 -1.6439504e-03
  3.9041061e-02
  7.1837613e-04
  2.5840979e-02
 -1.4845456e-05
  1.8858097e-03
 -2.9101469e-02
 -6.7025949e-03
 -1.1357162e-02
 -1.0800568e-02
  4.8649455e-03
  1.6977079e-04
 -1.6547944e-02
  1.6053515e-03
  9.8897647e-03
  1.1460518e-02
  7.3836944e-03
 -1.3066860e-02
  2.6299930e-04
  1.2802523e+00
 -7.5765266e-03
 -2.0260122e-03
  8.5450988e-03
 -4.8633134e-03
 -5.8048274e-03
  4.8363330e-03
 -6.5361615e-04
  1.2525259e-02
 -7.0529287e-03
 -1.2244577e-02
  2.1159383e-02
  1.6470149e-02
  8.1403777e-03
 -1.3999368e-02
 -2.4341228e-03
 -1.3885368e-02
  6.8421080e-03
 -1.9113639e-02
  1.5615775e-02
  4.2721080e-03
  5.0686048e-03
 -2.1833848e-02
  3.4600939e-03
  2.3609234e-03
  1.4950779e-02
 -9.5024183e-03
 -4.2531514e-03
 -1.1123989e-03
  5.5908561e-03
 -3.1237707e-02
  2.6472464e-02
  2.8772043e-02
 -2.6219241e-02
  1.1793321e-02
 -1.9244362e-02
 -4.9914112e-03
  3.8731666e-03
  3.2207221e-02
  2.6457175e-03
  6.5958002e-03
 -1.4918864e-02
  2.3120822e-02
  3.9994777e-03
 -5.9669856e-03
 -8.0513628e-03
 -3.7651134e-03
  5.0933557e-03
 -1.7766550e-02
  1.5786860e-02
  1.5430115e-02
  2.9785323e-03
  1.9913530e-03
  2.6439056e-02
 -1.1660972e-02
  1.4433358e-02
 -6.5002742e-04
 -5.4138545e-03
  8.5277800e-03
  8.6467564e-03
 -7.6037720e-03
 -1.1193458e-02
  6.3934741e-03
  7.7199745e-03
  3.1192084e-03
 -4.7501535e-03
  2.9431763e-03
 -7.7293557e-04
  1.0740224e-02
  4.5769857e-03
 -2.2839628e-02
  1.1795555e-03
  2.8054537e-02
  1.6496915e-02
  5.9657963e-05
  2.7810223e-03
 -8.9801702e-04
  1.1335786e-02
  5.5600815e-03
  1.5009129e+00
  2.3157457e-01
 -1.6657052e+00
 -4.4838834e-01
 -1.4127810e-01
 -9.1196918e-01
 -5.0008196e-01
 -8.8011271e-01
 -1.0969847e+00
  3.8503876e-01
 -1.1763221e+00
 -5.1949237e-02
 -2.8483124e-02
 -2.3370795e-01
 -4.5813732e-03
  1.3283247e+00
 -2.9431790e-01
  5.2157724e-01
  6.6245653e-02
  5.6783402e-01
 -1.3046768e-02
  5.8594398e-02
  3.0189642e-01
 -9.9931424e-03
  6.7997265e-01
  7.7286328e-04
  2.6001400e-01
  5.9058121e-03
  6.5919198e-03
  1.5504522e-02
 -1.0064572e-02
  4.9898371e-02
 -4.0435222e-01
  8.4365177e-01
 -3.1357348e-01
  2.6019059e-02
 -1.1728359e-02
  4.7045010e-03
  3.3033571e-01
  2.5527278e-02
  4.1996861e-01
 -2.2411461e-01
  3.6363360e-01
  2.4795095e-02
  1.5858723e-01
  1.0088857e-02
 -1.2014175e-02
 -1.6912904e-02
  7.5926573e-04
 -6.4760000e-03
  1.0536792e-02
  7.4343900e-03
  9.3653863e-03
 -1.4612278e-03
  4.2463742e-02
 -2.2232980e-02
  5.5749372e-02
  5.0194597e-01
 -2.8333727e-01
 -4.8771089e-01
  3.3722937e-02
 -2.0284243e-02
 -5.6764132e-01
 -1.0121027e+00
 -5.2114087e-01
  1.0883158e+00
 -5.5558199e-01
  9.8045163e-02
 -3.8514066e-01
  7.7894002e-02
 -5.1526893e-02
  1.8849979e-01
  7.0455056e-03
 -5.1954817e-02
  5.6851655e-03
 -1.9066889e-02
 -3.8427487e-01
 -7.1337488e-03
 -4.9686670e-01
  3.8469147e-02
  9.9347066e-03
 -9.1399970e-03
 -1.4970037e-02
 -1.5688695e-02
  1.1181166e-02
 -2.7590817e-02
 -1.0321079e-02
  1.9671509e-02
  2.7442583e-01
 -6.6310414e-03
  7.0954459e-03
 -4.6533100e-02
  6.0925740e-03
  7.6411385e-04
  5.0203077e-02
  1.1193936e-02
 -3.2913785e-02
 -2.3352395e-01
  2.9284444e-01
 -1.3130907e-02
  1.6630435e-02
 -1.7434411e-02
  4.7323979e-03
 -3.1783044e-02
 -1.5461700e-03
 -3.5337010e-01
 -7.3658219e-03
  4.5311335e-03
 -3.0959396e-02
  1.6744313e-03
  8.8391881e-03
 -1.4919187e-02
  1.9588968e-02
  1.6691159e-01
 -4.0690395e-01
  6.4851874e-01
  2.1430603e-01
  2.5440472e-01
 -6.5382212e-02
  1.1830501e-01
 -6.5415680e-02
 -1.7084548e-02
  1.8095027e-01
  3.6698140e-02
 -7.7604773e-03
  3.0382385e-02
  3.0418884e-02
  1.6329603e-02
 -5.1996307e-03
 -8.9423629e-03
 -1.2803712e-02
  2.1397006e-03
 -6.7785350e-03
 -2.3084008e-03
 -9.3573509e-03
 -2.8317161e-03
  3.4754232e-03
  2.1834492e-03
 -1.6596762e-03
  2.5869450e-02
 -1.7724529e-02
 -6.0248930e-02
 -2.2241609e-02
 -8.0009840e-02
 -8.7684892e-02
  7.0989178e-04
 -1.1564732e-02
 -1.0269069e-02
 -4.8045691e-02
 -7.0676426e-03
  1.4216770e-02
 -6.9257845e-03
 -4.1545718e-03
  8.9119322e-04
  2.4269482e-03
 -5.8823167e-03
 -9.6174739e-03
 -1.5676824e-02
  9.7597400e-03
 -2.7313440e-03
 -4.7616446e-03
  6.9712871e-03
 -5.1799831e-03
 -2.5201464e-02
 -3.9652041e-03
 -6.9309962e-03
 -1.3854767e-02
 -2.0861514e-03
 -2.7822244e-01
  2.6114148e-01
 -2.0971587e-02
 -5.5465043e-01
 -3.3544372e-03
  1.5078009e-02
 -4.7942577e-03
 -1.0484139e-01
  5.0223237e-01
  1.3927000e-02
  2.8628936e-01
  2.0589359e-02
  2.1975186e-02
  9.7131953e-02
  6.1446680e-03
 -7.9292074e-02
  4.3075406e-03
  1.0845999e-03
  9.3724281e-03
  1.3095543e-03
 -2.4546711e-03
 -1.3082606e-01
 -4.4834567e-04
 -5.7863422e-02
  3.3897930e-03
 -3.9546168e-03
 -4.4677127e-03
  2.2710017e-03
 -9.7078485e-03
  1.1846222e-02
  1.4151511e-02
 -1.8266143e-02
 -4.2094063e-02
 -1.6538072e-02
  1.2236843e-02
  1.7807199e-02
  2.0719085e-02
 -1.1797699e-02
 -1.6165596e-03
 -9.1111835e-04
 -1.5208261e-02
  8.1140036e-03
 -1.6933311e-02
  2.9927002e-02
  1.4910424e-03
 -1.1073669e-02
  3.5173108e-03
  3.4690049e-02
 -2.6382623e-02
  5.2828728e-03
  5.5678915e-02
 -1.0355105e-02
 -1.0927059e-02
  3.3720564e-02
 -3.8611481e-04
  3.1572036e-02
  3.5432789e-02
 -1.4972548e-01
 -4.5646504e-03
  3.4438610e-01
  4.8586689e-02
 -1.5170650e-02
 -3.4542587e-01
 -6.1045755e-02
 -1.7766543e-02
 -2.2846749e-01
 -3.5928527e-01
  1.3164517e-02
 -9.8693615e-04
 -1.1362975e-01
  7.0339758e-03
 -2.7215144e-01
  5.5854750e-01
 -1.4965795e-01
  4.7543980e-02
 -1.0723241e-02
 -7.1526263e-03
  1.1356388e-01
  6.0066720e-04
  6.1169855e-02
  1.0260739e-02
  8.1880651e-03
 -3.9114729e-03
  1.2689923e-02
 -1.5694905e-02
 -2.5739655e-02
 -2.3923894e-02
 -2.0753540e-01
 -2.1679504e-01
 -1.7439725e-02
 -2.3499507e-01
  1.4206017e-02
 -3.1330250e-02
 -8.8320076e-03
 -1.0631263e-03
  3.9382238e-02
 -1.3145170e-01
  1.2245595e-02
  3.2270793e-02
  1.1851582e-02
  3.7124544e-02
 -2.2223266e-03
  5.4646298e-02
  5.6231748e-02
 -4.4878223e-04
  2.1630866e-02
  9.3832202e-03
  7.5097405e-03
 -1.2073372e-03
 -1.3930087e-02
  2.6658501e-03
 -3.0579980e-02
  2.0040385e-01
 -5.9793061e-01
 -1.4178015e-01
  8.8607140e-02
 -1.8120658e-02
 -4.6818741e-02
 -1.0025313e-01
  1.3926101e-01
  8.3893858e-02
 -1.5570362e-03
  7.2199538e-02
  3.6939158e-04
 -2.9364710e-03
 -2.1106294e-01
 -2.7520739e-02
  5.6642786e-02
 -1.0560133e-02
  7.6472905e-04
  3.4935806e-02
 -1.0389525e-02
 -1.3029132e-02
  5.5738293e-02
  9.0873063e-02
  5.3442743e-02
  5.7094591e-03
  2.9573813e-03
  5.6108590e-02
  1.4455572e-02
  8.9742971e-04
  4.3818958e-02
 -5.1142334e-04
  1.3769647e-03
  1.6084263e-02
  3.7023309e-01
 -8.8936888e-02
  3.5843644e-03
 -9.7275525e-03
  5.4730859e-02
 -9.2829065e-04
  9.3818933e-02
 -2.5747221e-02
 -1.6360648e-02
  2.5458109e-01
  6.1681797e-03
  4.8849989e-02
 -8.8173766e-03
  1.9351404e-02
  4.4930587e-03
 -2.1977799e-02
  8.8389993e-02
  1.0705022e-02
  1.2788085e-02
  2.9106811e-02
 -2.7696909e-03
 -1.7230840e-02
 -4.5563010e-03
 -6.9939986e-02
  4.8095909e-01
  1.6742676e-01
  8.8313240e-01
  1.6823478e-02
  2.7114725e-01
 -1.6075316e-01
  4.6937019e-02
  8.5125834e-01
  1.1119993e-01
 -5.3769249e-02
 -1.0716603e+00
 -1.4498059e-02
 -2.5373417e-01
  1.4039446e-01
  1.0863589e-03
  4.5011227e-04
 -3.0463740e-01
 -1.6152740e-01
 -1.6535129e-01
  6.4375452e-03
  1.7688880e-02
  3.4828725e-01
 -3.3947323e-02
  4.5651417e-02
 -1.2349757e-02
  1.6786726e-02
 -3.4697089e-02
  1.8709002e-03
 -6.9595046e-02
 -3.2233071e-01
 -8.3153707e-01
  2.8472595e-02
 -2.5372757e-02
 -9.2841536e-03
 -1.2707043e-02
 -8.6843427e-03
 -6.1218054e-03
 -7.8526326e-02
 -9.0721315e-03
  5.9750187e-03
  7.4976021e-01
 -6.7754299e-05
  3.6722466e-02
 -2.9683260e-03
  1.6189840e-01
 -3.4151257e-03
 -1.3695725e-02
  3.7163537e-02
  1.8159947e-01
  6.8999499e-02
 -1.0906184e-02
 -1.4104774e-02
 -1.2439378e-03
  1.7213939e-02
 -2.8252419e-02
 -4.1713127e-01
  2.6204205e-01
  5.2506804e-01
  3.2663804e-01
 -4.9543474e-02
  3.9014705e-02
  5.4697889e-01
  6.4878941e-01
  5.2208561e-01
 -4.2796399e-02
  4.8530173e-01
 -1.6989042e-01
 -8.6103976e-01
  7.6941967e-01
 -1.5015657e+00
 -6.9074762e-01
 -3.4235987e-01
 -1.7350771e-01
  9.2476505e-01
 -6.6296411e-01
  1.0905921e+00
 -1.2817583e+00
 -7.7560914e-01
 -2.4318995e+00
 -1.1548802e+00
  4.2849129e-01
 -3.8763264e-01
  1.1091466e+00
 -1.2209722e+00
  6.9805615e-02
 -1.5257691e+00
  1.3370721e+00
 -1.9832354e+00
 -5.7722086e-01
  4.0643680e-01
 -2.3812292e+00
  4.5610312e-01
 -5.0179285e-01
  1.2574667e-01
 -4.5457914e-01
  3.3443967e-01
  1.2847842e-01
 -9.4418526e-01
 -1.0233922e+00
 -1.8096886e+00
  1.2200763e+00
 -2.6093414e-01
 -8.4634773e-02
  5.5227146e-02
  2.7231637e-01
 -2.9672679e-01
  5.2320126e-02
 -1.6778918e-01
 -2.2113715e-01
  2.9634705e-01
  1.4384735e-02
 -1.5133038e-02
 -7.6119078e-04
  3.4127943e-02
  1.0090437e-02
  4.5955176e-03
 -2.8322890e-02
  2.0764058e-02
  1.4424638e-01
 -1.2444880e-02
 -5.3490639e-02
  6.3229734e-03
 -1.0132974e-02
 -2.0494051e-03
  8.5004382e-03
 -8.8523207e-03
  3.9013934e-03
 -3.1695053e-02
 -2.4326166e-02
 -6.4582139e-02
  5.0589406e-01
  1.3245766e-03
 -8.8032766e-04
 -1.1141621e-02
 -1.7236837e-03
 -8.1631131e-03
  2.0599613e-02
 -1.0841138e-02
 -2.3587229e-02
 -3.0167434e-02
  7.2926283e-03
 -7.3135793e-03
 -1.0731932e-02
 -2.0765651e-02
 -2.9632572e-02
  1.9708540e-02
  1.6291023e-03
 -5.7819691e-03
  4.6591787e-03
 -9.2758853e-03
 -1.7406344e-03
  1.0513934e-02
 -1.9631717e-02
  4.5134500e-03
 -3.8249690e-02
 -3.6465027e-03
 -4.8479578e-03
 -9.5485263e-03
  6.2519601e-03
  2.6439684e-03
 -1.0261585e-03
 -4.0388489e-03
 -2.9912176e-02
  3.8218109e-03
  1.3926730e-02
  4.7133621e-03
 -6.2753605e-03
  2.5346380e-01
 -1.3399513e-01
  7.3451154e-02
 -1.0074069e-01
  2.7710587e-02
 -3.5795617e-01
  3.2096705e-04
  1.9869818e-01
  6.4954333e-02
  1.3285463e-02
  3.3093918e-02
 -1.5347220e-02
  3.9150868e-02
 -1.9557729e-02
 -1.5504062e-03
  2.3182882e-03
  1.0012527e-04
  6.3336180e-03
  2.1872919e-02
  3.9591501e-03
  1.9929721e-03
  1.0740107e-02
 -1.6621130e-02
  2.1382364e-02
  6.7507587e-03
  8.2238521e-03
  4.5768623e-03
  1.2383545e-03
 -1.8437089e-02
  5.3872378e-04
  3.1206757e-05
  1.2647167e-02
  3.5339002e-03
  8.6404849e-03
  8.5678101e-03
  3.8415850e-03
 -1.0320824e-02
 -1.5071782e-02
 -5.8724722e-03
  6.0325704e-04
 -2.3820041e-02
  6.6556135e-04
 -3.1841348e-03
 -5.0283644e-02
  7.3176385e-03
 -1.4826165e-03
 -1.1292254e-03
 -1.8890912e-02
  2.0972915e-02
  2.0392502e-02
 -6.2748743e-03
  9.9872220e-03
 -3.8242054e-03
  7.2219390e-03
 -7.2391457e-03
  5.4001939e-03
  4.3221891e-02
 -5.2979654e-01
 -5.3781491e-02
 -2.0801365e-02
  3.4654848e-02
 -4.1807839e-03
 -1.8890494e-02
  4.8119435e-01
 -5.9136353e-02
 -1.0262655e-01
  1.5733419e-01
 -1.4466434e-02
 -2.1159187e-02
  1.9876523e-02
  9.4543723e-03
 -7.1819194e-02
  1.0116826e-03
  2.7569407e-03
  1.2032446e-03
  1.5308539e-02
  1.4870716e-03
 -1.9676297e-04
  2.3956399e-02
 -1.6836137e-01
 -5.9426404e-03
 -1.2444480e-02
  8.7556255e-04
  3.8690303e-02
  1.7909893e-03
 -1.4996055e-02
 -2.9763305e-03
 -1.7425651e-02
 -5.2775359e-03
 -1.0139497e-04
 -8.2696062e-03
  3.0827418e-04
 -4.8430869e-04
  1.6555376e-03
 -2.5378151e-03
  1.3847716e-02
 -6.8122242e-04
  1.6702753e-02
  1.4905411e-02
  1.0267701e-02
 -5.5646021e-02
  1.3269783e-02
  1.0307113e-02
 -5.1861978e-03
 -2.9289396e-03
  2.2834953e-02
 -1.8816011e-02
 -2.7303761e-02
  2.4928050e-03
 -8.6932362e-04
 -6.7151939e-03
 -1.3089185e-03
  2.3387045e-02
  1.4418871e-02
  4.9237576e-03
  4.8704305e-01
  4.5949332e-03
 -4.1449782e-02
 -2.8525712e-03
  5.4625016e-02
 -8.1108612e-01
  7.0509939e-03
  2.8280142e-01
  2.0079488e-02
  8.3487630e-03
  2.0603748e-02
 -4.0781298e-03
 -9.0686232e-04
  1.5128754e-02
  2.4722464e-01
  4.2493219e-04
  5.5695225e-02
 -1.2425737e-02
  8.4315641e-03
 -7.3144659e-03
  6.2851552e-03
  1.8354820e-04
 -1.1387123e-02
  9.0602152e-03
  1.7547437e-03
  1.8544644e-02
 -1.9606108e-02
 -1.0141436e-02
  2.4476515e-03
 -8.9856773e-04
 -1.4264213e-02
 -2.3320327e-03
  4.2872983e-03
  5.0080563e-03
  1.9422360e-02
 -5.5950708e-03
  2.4819158e-02
  2.0220403e-02
  1.6304081e-02
  1.6878702e-04
  1.1213673e-02
  2.3271549e-03
 -6.0585253e-03
  2.2387682e-02
 -4.7164024e-03
  7.1111261e-03
 -2.6233152e-03
  6.1361115e-02
 -7.6285913e-05
  1.7950675e-02
  3.9480623e-02
  7.0393202e-03
  1.3787003e-02
 -3.2924509e-01
 -1.2408131e-02
 -4.0321690e-03
 -1.8436482e-04
 -8.7295972e-02
  1.2641549e-02
  7.5135883e-03
 -8.7266946e-03
 -1.3327252e-02
 -5.4947656e-02
 -8.0750482e-03
  2.1654284e-03
 -1.7073713e-02
  5.0529364e-02
 -3.0159440e-03
 -3.1474477e-03
  9.4531681e-03
 -4.0375866e-02
 -2.9764622e-03
 -4.4567678e-03
  1.0660002e-02
 -2.1445647e-02
  1.8047302e-03
  6.6164774e-03
  9.7172689e-03
 -2.5757137e-03
 -1.5701130e-01
 -8.3243895e-01
 -1.6273595e-02
  4.4536576e-02
 -4.0638849e-02
  5.9853075e-05
 -2.0077401e-01
 -6.1759055e-02
  9.6266851e-02
 -1.2173356e-02
  3.9841656e-02
 -5.8937436e-03
  4.3387816e-04
 -7.1754707e-03
 -1.8407695e-02
 -5.3457497e-04
  1.9263320e-02
 -1.3731102e-02
 -7.2988883e-02
 -2.0440817e-02
  3.0317174e-02
  2.8309070e-02
  6.3320901e-03
 -8.4914255e-04
  2.3887954e-03
  3.4878433e-03
 -3.0057317e-02
 -8.6746749e-04
  2.4967408e-02
 -3.5259008e-04
  5.7840830e-01
  7.3770416e-01
  1.9773299e-01
 -1.5074444e+00
 -1.0083983e-01
  5.2229989e-01
  1.3590752e-01
 -2.8988916e-01
  2.9972509e-01
  9.0579331e-01
 -4.4071382e-01
  8.6515613e-02
 -4.9786192e-01
 -9.2305732e-01
  3.7043715e-01
 -9.5486075e-02
 -2.6731471e-02
 -1.6732837e-01
 -1.0625543e-03
 -8.2383133e-02
  6.2912880e-03
 -1.4453876e-01
 -2.4763586e-01
 -7.9271514e-03
  4.3659106e-02
  1.3175288e-01
 -1.2268359e-01
 -1.9810041e-03
 -1.0569517e-01
  4.4273969e-02
  8.4522627e-03
  4.0292317e-01
  2.0965776e-01
 -8.5643744e-03
  1.7943715e-01
  8.2649942e-03
  1.1309810e-02
  1.5746415e-02
 -3.1121746e-02
 -2.2932148e-02
  7.9807550e-02
  9.3452018e-03
 -1.5173133e-01
 -3.0205196e-02
 -2.3072965e-02
  6.1587943e-03
 -1.0879499e-02
  1.0645102e-02
  4.0440354e-03
 -3.2890225e-03
 -3.9096609e-02
 -8.3902180e-03
 -1.7902613e-02
  2.2063199e-03
  1.8052237e-02
 -4.0517654e-05
  4.0761536e-01
  4.4844577e-01
  1.6749014e-01
  2.2141325e-01
  8.4243697e-01
 -8.1870931e-01
 -2.6147345e-01
  6.3831037e-01
 -5.8372891e-01
  1.2305495e+00
  2.9155221e-03
 -1.3609807e-01
  2.0421326e-01
  1.4719963e-01
 -2.0615593e-02
 -8.9600444e-01
 -2.2956494e-02
  1.4370449e-01
  3.3423766e-01
  2.8361490e-03
 -1.1526534e-01
  6.3581246e-01
 -6.4172131e-01
  7.2160852e-01
 -1.1458493e+00
  1.6806245e-02
  4.5302245e-01
  5.7222415e-03
 -5.1460963e-01
 -8.3003063e-03
 -1.0242637e-02
 -5.1172334e-01
 -2.8814310e-01
  2.0227618e+00
 -2.8350063e-02
  1.4566683e-02
 -1.2118625e-02
  1.9933239e-02
  9.8116007e-03
  8.1710964e-03
 -3.3190988e-02
 -1.2593223e-01
  1.0052521e+00
  8.7256625e-04
  1.3140657e-02
  5.5579063e-02
  1.9685768e-02
  9.9093383e-03
  1.1802399e-02
  9.5784098e-02
  1.8088170e-04
  2.5781077e-01
 -2.7587321e-02
  3.0538491e-03
 -1.4960868e-02
 -8.6512808e-03
 -2.9520372e-01
  2.9164615e-01
 -2.0441012e+00
 -5.9926564e-01
 -9.6236795e-01
  6.0295814e-01
  9.6162105e-01
  6.0168797e-01
 -9.8746091e-01
  1.6029334e+00
 -4.1703120e-01
 -6.2026482e-02
  2.9129261e-01
  8.6543459e-01
 -2.5469363e-01
  3.9713472e-01
  5.7879215e-01
 -9.8771650e-01
  4.7695905e-01
 -1.2753400e+00
  3.4340030e-01
 -6.2285435e-01
  7.9488624e-03
 -1.2499096e+00
 -5.5576405e-03
  3.3101868e-02
 -1.5945366e-01
  2.0220490e-02
 -1.4867889e-02
  4.7744378e-01
 -3.4430288e-02
  2.5028580e-01
 -4.5758095e-01
 -1.7950144e-01
  2.0162065e-01
 -6.1618972e-01
 -1.5744452e-01
 -3.4781006e-01
  7.1732938e-02
 -7.7391338e-01
 -1.5927674e-01
 -8.9794293e-02
  4.4014014e-02
 -7.9418316e-02
 -4.6063933e-01
 -1.5789567e-01
  4.0604277e-03
  1.7023790e+00
  5.1843422e-03
  5.7469183e-01
 -1.1463902e-01
  7.8948382e-03
 -1.1753545e-01
 -5.1163297e-02
  1.8935569e-01
 -1.7304605e-02
 -7.3149898e-03
  1.2213355e-02
  1.6270436e-03
  1.7895319e-03
  2.1823002e-02
  7.9853542e-02
  1.7170049e-02
  7.0885560e-03
  3.9053909e-02
 -1.6869832e-02
 -2.8297678e-04
 -1.1436005e-02
  7.6631187e-03
  3.3037015e-03
  3.6219250e-02
  1.2629047e-02
 -4.4812541e-03
 -6.3461545e-03
  7.0528393e-03
  2.4965634e-03
  4.1484930e-02
  2.1605877e-02
 -7.6000672e-04
 -7.3861545e-03
  1.6032437e-02
 -8.4952376e-04
  3.3741700e-03
  1.3033317e-02
  1.3606462e-03
  3.7303422e-02
  4.9488883e-02
  2.3861336e-02
 -2.9887448e-03
  2.0724755e-04
  1.3206669e-03
  4.1999160e-03
  1.5240867e-02
 -2.2099996e-03
  5.9594127e-04
  1.5953653e-02
 -1.1636915e-02
  1.1371989e-02
  5.1509943e-03
  1.3814988e-02
  3.0774612e-02
  1.2044320e-03
 -7.4653924e-03
  2.8688679e-03
  4.5669246e-03
  2.8748154e-03
 -3.1462137e-02
  8.8685062e-03
  1.5451389e-02
  3.3231854e-02
  3.3292189e-02
 -3.2951925e-02
  9.3212128e-03
 -1.1374442e-02
  2.7882271e-03
 -2.1567233e-03
  2.3329156e-02
  6.0429177e-03
 -9.0239327e-03
  1.3880544e-02
  2.3971300e-03
 -1.7247139e-03
 -2.7917983e-02
 -6.7065358e-03
  2.9187471e-02
  2.6776493e-03
  1.6331911e-02
  1.1774804e-02
  2.4162708e-02
 -6.6831252e-03
 -1.8631306e-02
  3.2835731e-03
  2.5686579e-02
  2.5252318e-02
  4.7909883e-03
  5.3440424e-04
 -3.4857648e-03
  8.8279881e-03
 -3.3474335e-04
 -2.7458598e-03
  2.7332190e-02
 -1.6000342e-02
  1.4791399e-02
 -1.3443496e-02
  1.4358870e-02
 -1.1220091e-04
 -2.6739337e-03
  1.5018392e-02
  4.0123751e-03
  4.5913542e-03
 -1.2061814e-02
  1.8392101e-02
  6.8606269e-03
 -1.1152277e-02
 -5.1444257e-03
 -9.0029212e-03
 -3.7381700e-03
  4.8091058e-03
  2.3408220e-03
  4.7711454e-02
  4.8856004e-03
 -5.0782971e-03
 -2.9752236e-03
 -8.2979752e-03
  9.4070379e-03
  4.8016436e-02
 -2.2777915e-03
  1.1683388e-02
  8.3448690e-01
 -2.0015547e-01
 -8.8315010e-01
  2.6324022e-01
 -3.2908550e-01
  8.5789400e-01
  1.4560711e+00
 -8.3645684e-01
  4.6099758e-01
 -1.1051917e+00
  5.7593352e-01
  6.0083538e-01
 -1.5399313e-01
 -4.9100435e-01
  1.0582357e-01
  6.2871021e-01
 -3.5093093e-01
 -2.5774863e-01
 -3.5835724e-02
 -1.7903459e-01
 -6.3041057e-03
  7.8648873e-02
  6.5229261e-01
  1.1036833e-02
  9.1747217e-02
  3.4248996e-01
 -2.4528989e-01
 -4.7302853e-02
  5.2963488e-02
  4.6095025e-04
 -2.7408078e-03
  8.2372117e-01
  1.9113812e-01
 -4.7992323e-02
  1.3708758e-01
 -7.2764494e-02
  1.5825984e-01
 -8.4664032e-02
 -3.5372440e-02
 -2.8867483e-01
  9.8804575e-01
 -1.8589815e-01
 -8.1238924e-03
 -7.8058100e-01
 -3.9098033e-01
 -5.3143140e-02
 -3.5249472e-02
 -3.0045298e-01
 -5.6150910e-03
 -1.7673314e-01
 -2.4865936e-01
  1.3339594e-03
  1.3179310e-03
  2.0673935e-01
  5.8713388e-03
  1.2027506e-01
  8.6919814e-03
  2.2850351e-02
 -6.1923265e-03
  1.2136495e-02
 -4.9537257e-03
 -2.2607494e-02
 -2.1468334e-02
 -9.6823005e-03
  7.3509458e-03
  5.2735498e-03
 -1.1065744e-03
  3.5762845e-04
  4.1489549e-02
  2.1268972e-03
  1.6146926e-02
 -7.4409051e-03
 -2.4192967e-04
  5.8905510e-03
 -2.5617564e-02
  7.0542605e-03
 -9.4267856e-03
  3.7523261e-03
  7.2703753e-03
  3.5400424e-02
 -1.8670278e-02
  4.2608348e-03
  2.1928718e-02
  1.7366346e-02
  1.1304789e-02
  3.6125716e-02
  5.8091069e-03
 -1.1076292e-02
 -3.7428759e-02
  9.6667847e-03
  2.7356716e-02
 -1.6659662e-02
  6.8369904e-03
  1.0455271e-02
  1.9714929e-02
  1.9270062e-02
 -1.2676368e-02
 -3.9665215e-03
 -5.4296898e-03
  6.2231813e-02
 -1.3182525e-04
 -4.8891851e-03
 -1.1189848e-02
 -5.6136041e-03
  1.1658829e-03
  5.7502575e-03
 -1.6611297e-02
  1.1863106e-02
  6.0882838e-03
 -3.6310954e-03
  1.0104568e-02
  1.6839582e-03
 -5.9436381e-02
 -1.6398089e-02
  2.1667754e-02
 -1.0830266e-02
 -5.7960018e-03
 -1.2399399e-01
  3.1516377e-02
  1.2546153e-01
 -3.3478502e-02
 -1.1206342e-01
 -5.0546337e-02
  4.6453527e-03
  1.1038221e-04
  2.1304891e-03
 -1.5482316e-02
 -8.1894480e-02
  1.2942631e-02
 -1.8935950e-03
 -2.5320403e-02
 -2.5784736e-03
  1.0950029e-02
 -4.8143521e-02
  7.2017938e-02
 -5.5508383e-02
  6.8746349e-03
 -3.7878675e-03
 -2.2198355e-02
 -9.4949250e-04
  4.4960972e-02
 -7.4119698e-03
 -3.0147554e-03
 -6.2433993e-03
  9.3303462e-03
 -1.6237993e-02
 -2.4603397e-02
  1.7834778e-04
  2.0945389e-03
 -6.1734645e-03
 -2.9392228e-03
  3.8891893e-03
 -2.4069082e-02
 -2.8908834e-01
 -3.5846431e-02
 -6.5546921e-03
 -2.3567507e-02
  6.7412565e-03
 -2.5119653e-02
  1.2003318e-03
 -1.4879775e-03
 -3.8936920e-02
  1.0411410e-02
 -9.0807900e-03
 -6.7942976e-03
 -9.9756643e-03
  1.8369870e-02
  1.1243480e-02
 -3.3727244e-02
 -8.4243678e-03
  1.8486692e-02
 -9.8325945e-03
 -7.1965894e-03
  1.5677179e-03
  3.8624275e-03
 -1.0909028e-03
  9.3722325e-03
  3.6100715e-03
  2.4472317e-02
  5.8030216e-03
 -1.9571511e-02
  1.8592374e-03
 -2.9939380e-03
  1.5158518e-03
 -2.2739682e-03
  1.1606749e-02
 -2.2172830e-03
 -3.2745790e-02
  1.0190959e-02
  5.7860832e-03
 -8.7102028e-03
 -5.1619002e-04
 -1.4351303e-04
 -1.1391218e-03
  5.0527207e-03
  7.0301434e-03
 -2.4015645e-02
 -2.2113394e-02
 -1.6199030e-02
 -5.7900595e-03
 -1.1452308e-02
  1.8422627e-03
 -5.1119281e-03
  1.5905058e-02
 -4.9146857e-02
 -4.6613077e-03
 -1.4476905e-02
 -5.7139073e-04
  6.4735971e-03
 -9.1893971e-03
 -1.6941212e-02
 -2.0500192e-02
 -6.2990086e-03
 -2.6146717e-02
 -2.4760619e-03
  5.0217537e-03
 -1.4735115e-02
 -2.6493757e-03
  7.3828641e-04
  2.8037149e-01
  6.7001577e-03
  3.7525906e-03
 -4.2205825e-03
 -3.0414470e-02
 -1.7327401e-01
 -6.1298180e-01
  3.0563447e+00
  1.0385960e-01
 -3.7799552e-01
  7.2984532e-02
 -2.0061934e-01
 -6.1167937e-02
  4.9168386e-02
  3.9204508e-01
  1.8452303e+00
  1.3386637e-02
  1.2319331e-02
  3.7638554e-03
  7.3220097e-03
 -6.5133544e-03
  9.7538643e-03
  2.7365943e-02
 -2.6738852e-02
  1.0731924e-02
 -7.7936342e-03
  1.1083693e-04
  4.9977057e-02
 -9.1573754e-03
  3.2729562e-03
  6.7055656e-04
  8.2851592e-03
  7.5072343e-03
 -1.2716996e-02
 -1.1200327e-03
 -9.3798898e-03
 -7.2645126e-03
 -6.4926576e-03
  4.7187675e-03
  1.1205644e-02
  2.7503562e-04
 -1.3119000e-02
 -1.0968322e-02
 -2.5890077e-02
 -2.2413321e-03
 -1.5488239e-02
 -1.8781677e-02
  2.0246860e-04
 -3.4905586e-04
  1.2703320e-02
  1.2115923e-01
  1.1133380e-02
 -1.8115338e-02
 -3.3938717e-03
  2.3627704e-02
 -2.1376030e-04
  6.4666577e-02
 -7.0780036e-03
  7.0062065e-03
  1.5929486e-03
  2.1292378e-01
  3.2328483e-01
  9.3982369e-02
 -6.2756187e-01
 -1.5868357e-01
  4.4864908e-01
  7.4095416e-01
 -7.1050711e-02
 -1.0231096e+00
 -3.0965754e-01
 -1.0681758e-01
  3.1218426e-02
 -8.1148548e-03
 -1.9886129e-02
 -5.1531852e-03
 -2.8373757e-02
 -2.7951587e-02
  2.3563156e-02
 -5.3681550e-04
  1.5977342e-01
 -2.4691718e-03
 -5.4399766e-02
  3.5319358e-02
 -3.6095139e-02
 -5.9723421e-03
 -1.1241790e-02
 -4.4450550e-03
  2.9672317e-02
  8.0583198e-03
 -1.4222022e-02
 -5.6110457e-02
 -6.9440114e-03
 -5.5147130e-02
  3.0022964e-02
  3.1613868e-02
  1.5160241e-03
 -3.2945252e-03
 -1.9235546e-02
  1.6413733e-02
  8.1912763e-03
 -1.8036431e-02
  5.8627361e-01
 -2.9627909e-03
  7.2473190e-03
 -4.4275559e-03
 -1.0508080e-02
  4.6430490e-04
 -2.5601741e-02
 -2.2300610e-03
 -1.1979763e-02
  2.3436634e-02
  5.3246273e-04
 -3.4305993e-02
  8.3798487e-03
 -6.0811760e-03
 -2.0880615e-03
 -4.5614626e-04
  5.7198829e-03
 -1.7566361e-02
  2.4626548e-03
  2.3472782e-04
  1.3730415e-02
 -2.6882492e-02
  1.8577484e-03
 -1.1138415e-02
 -2.7008560e-02
 -6.7156111e-04
  7.0931561e-02
  8.3850930e-05
 -6.2244497e-03
  1.5261864e-02
 -5.5290642e-03
 -1.2252459e-03
  5.2010748e-03
  2.5990540e-03
 -6.9493733e-02
 -3.4802502e-03
  1.7905176e-02
 -1.3179487e-02
  5.1628935e-01
  1.9710658e-03
 -4.7336489e-02
 -1.3442453e-02
 -4.4140309e-02
  1.4505289e-02
 -8.1760203e-03
 -5.3232316e-02
 -2.7081491e-02
  1.9530100e-03
  2.8234450e-03
  6.9864788e-03
  5.1804446e-04
 -2.7987617e-04
  3.1271921e-03
 -2.9545926e-02
 -6.7160777e-03
  4.6783298e-02
 -1.2721791e-03
  4.6218716e-02
  1.2112546e-02
  1.1914115e-02
  2.6292354e-02
  2.0861715e-02
 -6.5784440e-03
 -1.7066326e-02
 -2.3535793e-03
  1.7364006e-02
  2.5505070e-02
 -5.0016153e-03
 -1.9697856e-02
 -1.1880527e-02
 -5.1176022e-03
  1.5995560e-02
  2.1392521e-01
 -2.1467282e-01
 -4.8982900e-01
  5.6608483e-02
  1.2373169e-01
 -1.3407400e-01
  6.4671952e-03
 -2.8721225e-01
  3.0927142e-02
  1.2451903e-01
  1.3171592e-01
  3.3494625e-03
 -1.0905341e-01
  4.7238387e-02
  1.1372099e-02
  7.2546706e-02
 -7.3927697e-03
 -2.6114374e-02
  2.5248867e-02
 -1.8844873e-02
 -9.6236225e-03
  2.0626285e-03
 -2.8323557e-02
 -6.0794996e-03
 -8.6855972e-03
 -1.7243674e-02
  1.2849326e-02
  8.2417326e-03
 -3.8639758e-02
  9.3733435e-03
  3.5725247e-02
  3.1642240e-02
  2.3021845e-03
  2.1390440e-02
  4.9729319e-04
  5.9593879e-03
  1.4926660e-02
  1.3952192e-02
  2.5725914e-03
  2.4770498e-02
  5.8369562e-03
  7.0356671e-03
 -2.0572104e-02
  2.5353311e-02
  9.4222557e-04
 -4.4932552e-02
  2.0033723e-02
 -3.4053519e-03
 -5.9360382e-04
  3.3251844e-02
  3.0541152e-02
 -8.4559130e-04
  5.8682892e-03
 -2.8895321e-03
  1.7900681e-03
 -3.0624617e-03
  3.6108255e-01
  2.2910102e-01
  2.3385417e-01
  5.7710409e-01
  7.9865241e-01
  1.4279607e-01
  8.3874278e-02
  8.3683920e-01
  5.6722395e-02
  5.8177978e-01
  2.5697765e-01
  4.1373706e-01
 -5.2157831e-01
 -3.7869340e-01
  2.0158701e-01
 -6.7260426e-01
  2.5422060e-01
 -8.0000407e-01
  8.0254918e-01
 -5.6969035e-01
  7.8862005e-01
 -1.7370289e-02
 -1.5101983e-01
  5.2813392e-02
 -1.5137838e-01
  7.4763119e-01
 -1.2995459e+00
  2.0411036e+00
  8.0122612e-02
 -6.5931386e-01
 -1.7167903e-01
 -2.7610749e-02
 -8.8288146e-01
 -1.1450089e-02
 -1.5830831e-01
 -6.0598427e-01
  8.0762583e-01
 -8.2565015e-03
  4.0296383e-02
 -4.4556534e-01
 -4.7285491e-01
  6.8800547e-04
  7.1435655e-03
 -1.5239823e-02
  4.9818093e-01
 -7.9972176e-03
 -3.3994418e-01
 -2.6821211e-02
 -1.5666482e-01
 -3.7971342e-01
 -2.2157500e-02
 -1.3382563e-01
  5.1625371e-02
  4.1079582e-03
 -1.7964210e-01
 -1.3356849e-02
  3.3685938e-03
 -7.2524003e-03
  5.2326923e-04
  1.2945773e-02
  5.4307133e-02
 -2.8207395e-02
  2.1749814e-03
 -1.5111205e-01
 -1.6434207e-03
 -2.7822077e-02
  1.5997916e-01
  2.1943109e-02
 -2.7701745e-03
  3.6521649e-03
  6.3685598e-03
  7.3567517e-03
 -5.3458815e-03
  8.8590197e-03
  3.4396900e-03
 -1.9787407e-02
 -5.6857243e-03
 -2.1995534e-03
 -8.0666304e-02
  5.2116336e-03
 -7.8711519e-03
  1.7568959e-02
  3.4653205e-02
 -2.3083832e-02
 -7.3174946e-05
  1.6383350e-02
 -9.3508195e-03
  3.8819769e-03
 -1.0855841e-03
  2.7496081e-02
  2.3916535e-02
  7.4041020e-03
 -7.7258698e-03
 -5.4669213e-03
 -4.1506765e-03
  9.8890057e-03
 -7.0592631e-03
 -1.3502424e-03
  1.9244621e-02
 -3.7322384e-03
  1.4983022e-02
 -9.3249008e-03
 -1.7401468e-03
 -1.6962262e-02
 -1.1702202e-02
  9.0322103e-03
 -9.8079396e-03
  2.9544229e-02
 -7.7835410e-03
  8.6893956e-04
  2.7575588e-02
 -9.2285369e-03
  2.9889435e-01
 -2.7626187e-01
 -9.4819903e-02
 -2.1209090e+00
 -2.1543021e+00
  6.2367964e-01
  1.0214083e-01
 -1.4642058e-01
  1.1378381e-02
 -2.8941348e-01
  3.4399897e-02
 -9.6129966e-01
  1.5786128e-01
  1.1070307e+00
 -4.7896169e-02
 -4.9576525e-02
  1.6598357e+00
 -3.6826369e-01
 -2.9102936e-01
  5.1406801e-01
 -2.5541195e-01
  1.8162442e+00
  1.0415641e+00
  3.6569074e-01
 -1.0164358e-02
  1.6954566e+00
 -6.2726003e-01
 -2.5350541e-01
 -1.1548982e-01
 -8.9775242e-02
  6.5296412e-01
  1.4352978e+00
  7.0906013e-01
  2.5893190e+00
  4.1954660e-01
 -1.9006511e+00
 -4.9811548e-01
  5.5713328e-03
  1.3441126e+00
  3.8402799e-01
  5.2986103e-01
  4.5591347e-02
  3.5979977e-01
  2.4910566e-01
 -1.8289803e+00
 -5.4578823e-01
  1.4151202e+00
 -5.8659703e-01
 -1.1962541e-01
 -2.7374861e-01
  1.5093014e-01
  1.9080570e-01
 -1.7371802e-01
  1.7247237e-02
 -6.6767967e-01
  1.4350323e-01
  1.9545531e-02
 -1.1600155e-02
  8.6392937e-03
  4.3719879e-04
 -7.8395195e-03
  9.6598240e-03
  2.2289639e-02
 -3.3496786e-02
  6.1040679e-03
  2.0149859e-02
  1.8556466e-02
  1.2231484e-02
 -2.9811556e-03
  1.7454762e-02
 -1.0075177e-02
  4.3838127e-03
  1.2881145e-02
 -2.4369424e-02
  1.6557403e-03
  2.2867581e-02
 -1.9558474e-02
  2.2026075e-03
  6.6156616e-04
  1.3787876e-02
 -4.1640276e-04
 -1.1738855e-02
  4.0111247e-02
 -4.6041487e-03
 -1.2918934e-03
 -2.2356231e-02
 -1.0572977e-03
  1.4734256e-02
  1.5219236e-02
 -3.4128495e-02
 -7.7540125e-03
  4.5743633e-02
 -6.9841165e-03
 -1.1877628e-03
  1.5810750e-02
  1.0996079e-02
  7.9080332e-03
  4.8584152e-02
  1.2704773e-02
  2.7329944e-02
  1.5998911e-02
 -4.5306314e-02
  1.3215474e-02
  4.4573159e-03
 -2.4326150e-03
  4.7586014e-04
  2.5784296e-03
  2.7795609e-02
 -3.7565113e-03
 -2.0103430e-02
 -1.5351236e-02
  3.6412992e-03
 -4.4166718e-02
  2.4880970e-01
  5.4284256e-02
 -4.0781837e-02
 -2.5310839e-02
  4.7569901e-02
  7.6488554e-03
  7.5116292e-02
  7.3287621e-02
 -1.0466304e-01
 -1.6140902e-01
 -1.1897310e-02
 -5.6666110e-02
  2.4461830e-02
  5.0635975e-02
 -3.3388957e-02
  4.6316879e-03
  8.4872190e-03
 -3.5708111e-02
 -1.9640690e-03
 -1.0807194e-02
 -6.6217612e-03
  2.8801330e-03
  2.2763290e-02
 -9.3097510e-03
 -2.8301852e-02
 -6.3376866e-02
 -1.3055583e-03
  1.4037214e-02
  1.6867470e-02
 -2.8943025e-02
 -1.3382996e-02
 -2.4964551e-03
 -2.7784716e-02
  2.8049188e-02
 -4.0242737e-03
  5.3387992e-03
 -7.2786370e-03
 -7.3282147e-04
 -2.3664776e-02
  9.4656460e-04
 -8.2330070e-03
 -8.7840343e-03
 -2.5730785e-03
 -4.2287771e-02
 -4.0798676e-03
 -1.0782169e-02
 -3.3836896e-03
 -4.7902993e-04
 -2.3885800e-02
 -1.7411783e-02
  1.2442528e-04
 -9.9891368e-03
 -1.2911985e-02
 -3.1373026e-03
  2.1830697e-02
 -1.8906942e-01
  6.9507295e-01
  2.3185217e-01
 -3.1318784e-01
 -1.3814249e+00
 -2.7232456e-01
  2.9644829e-01
  2.1090055e+00
  2.9727906e-01
 -5.2000970e-01
  2.4585944e-01
  3.3442705e-04
  2.4132738e-02
  1.5926804e-02
 -5.1044505e-03
 -1.8732216e-02
  6.0034543e-02
  7.0894524e-02
  3.2465145e-01
  1.7201500e-03
  9.0361267e-02
  9.4548874e-03
  4.4084448e-01
 -1.9768937e-03
 -1.3066939e-02
 -4.7260392e-03
 -3.5300764e-01
  5.6388117e-03
 -1.4181890e-03
 -1.9189229e-02
 -3.2903899e-02
  1.8861456e-02
 -1.0313173e-01
 -1.4930057e-03
  6.6360189e-03
 -4.1709792e-02
 -1.5778616e-02
  9.3881534e-03
  6.7601807e-04
  1.2310165e-03
 -5.9654925e-02
 -2.1126298e-02
 -1.1348825e-02
  1.1408881e-02
  1.7275955e-03
  1.4599471e-01
 -2.2131898e-03
 -4.2728120e-03
 -1.5133019e-01
  9.5938221e-02
  1.8725358e-02
 -1.0909636e-03
 -5.6640292e-03
 -1.5313433e-02
 -2.4325328e-02
 -2.8418981e-02
  6.2112704e-02
 -4.5337293e-01
  3.3971495e-03
 -4.0317976e-01
  5.6301653e-01
 -2.7098905e-02
  1.3183477e-02
  2.9781230e-02
  2.0666273e-01
 -2.8043160e-02
  1.5229943e-01
  2.8086086e-03
  3.3471640e-04
 -2.8564322e-01
  5.9260178e-02
  2.2310498e-03
 -2.0634958e-03
 -1.9002640e-01
  2.8999936e-02
 -1.2254152e+00
  9.9571850e-03
 -1.5218472e-02
  2.5549498e-01
  1.4638579e-03
  3.3594674e-01
  2.4378953e+00
 -1.5899949e-02
 -2.1483982e-03
 -4.4230944e-01
  6.1389282e-02
 -3.5603596e-03
  7.6955336e-04
 -8.1093095e-02
  8.7597534e-02
 -1.7389981e-01
 -1.9071074e-01
 -2.9321176e-03
 -2.0328751e-02
  2.0140706e-02
 -1.2918406e-02
 -2.7966850e-02
  7.0118618e-01
 -2.6882238e+00
  4.0751806e-01
  1.2801378e-03
  1.4703937e-03
 -1.7318051e-01
 -2.3761243e-03
  4.6428549e-03
 -6.0216403e-03
  4.9563226e-01
  2.2186311e-03
 -3.4475747e-02
 -1.9756844e-02
  7.9206610e-01
  1.3199661e-02
  3.0056605e+00
  1.9828791e-02
  1.2072780e-02
 -3.2457423e-01
  2.4875288e-01
 -3.8653549e-02
  3.0327717e-02
 -9.4467109e-01
  4.7191578e-01
 -8.9899879e-03
  1.9633436e-01
 -8.7439671e-02
  1.4441822e-01
  2.6940185e-01
 -1.0876037e+00
  1.3392671e-02
  2.7181882e-02
  6.5871447e-01
  1.7036077e-01
 -9.0922154e-03
 -2.3233069e-02
  1.3648669e+00
  7.2032079e-02
 -2.7515957e-01
  5.2488789e-02
  2.8769020e-02
  7.0549630e-02
  6.5676577e-02
 -2.3075618e-01
  5.2837437e-01
 -2.2806998e-03
  1.4592729e-02
  2.1937950e-01
  4.3294570e-01
  1.1793359e-01
 -9.4758481e-02
  1.0301965e+00
  1.7491132e-01
  2.2555742e-01
 -3.7264088e-01
 -3.3729792e-02
  3.4311410e-02
  3.7943757e-01
  1.9249944e-01
 -7.1727030e-02
 -4.8318160e-01
  2.4355090e-01
 -4.7847465e-01
  1.0465255e-02
  1.2239927e-02
 -5.0912142e-01
  8.7447040e-04
 -4.7564071e-02
  1.1884978e-02
 -2.2620378e-01
  5.1746290e-02
  1.1501896e-02
  5.0890278e-02
  8.9924741e-01
  2.1024123e-02
 -1.0501933e+00
  3.3116572e-02
 -1.0201383e-01
 -3.0356795e-01
  6.2428441e+00
  1.3323854e+00
 -5.5225253e-01
  4.1620231e-01
  1.4210654e+00
  1.0689778e-01
 -1.5856938e-01
 -1.0655866e-01
  1.0235594e-01
 -8.9705032e-01
 -2.3242140e-01
  1.0979304e-01
 -1.9455746e-01
  2.2756562e+00
  2.7354374e+00
  3.0515473e+00
 -2.3745236e+00
  1.4377919e+00
 -2.9204473e-01
 -1.6413075e+00
 -3.7307811e-01
 -2.0362480e+00
  9.1770917e-01
  8.6907339e-01
 -2.1079510e-01
 -1.8305033e+00
 -1.0901389e+00
  1.6585381e+00
 -1.3163710e+00
  1.0514352e-01
 -1.0012396e-01
 -1.6130921e+00
  9.8705661e-01
  6.0966086e-01
 -2.0258179e+00
  2.1529110e-01
  1.0319275e-01
 -7.1044111e-01
 -9.4798297e-01
 -3.6542076e-01
  1.0037690e-01
  1.0568500e+00
  5.7740009e-01
  2.8083158e-01
 -1.5625253e+00
 -1.2206304e+00
 -1.4298989e+00
  5.8514863e-01
  2.6472886e+00
  1.0341823e-01
  8.7494385e-01
  1.3759677e-01
  1.0183407e-01
  6.5884906e-01
  9.2029846e-01
  1.0201201e-01
  5.1269716e-01
  4.5539764e-01
 -3.6863273e-01
  6.5384603e-01
 -4.7505111e-01
  4.4949639e-01
  1.2454443e+00
  8.1711364e-01
  5.3831100e-01
  1.8523242e+00
 -2.5302141e+00
  1.0062765e-01
 -1.3563350e+00
 -1.0478872e+00
  1.0337327e-01
  2.9059246e-01
  2.6529934e+00
  4.4001618e-01
 -1.5477510e-01
  5.7089114e-01
 -1.0430971e-01
 -1.0109901e-01
  1.0034385e+00
  3.0449790e-01
  1.8499459e-01
 -2.7103069e-01
  1.9076630e+00
  3.9062530e-01
  3.0892110e+00
  1.0001349e-01
 -1.2023665e+00
 -6.8154526e-01
  6.3145512e-01
  1.4012626e-01
  1.9986751e+00
  1.2343271e+00
 -4.8723763e-01
 -2.6545867e-01
 -5.7858562e-01
  1.0043969e+00
  7.3940271e-01
  3.5151722e+00
 -2.6802003e-01
  3.3621695e+00
  1.0059662e-01
 -2.0147619e+00
  1.4106234e+00
  6.5753508e-01
 -2.2809901e+00
 -4.2490530e-01
  2.8506279e-01
  3.8257828e-01
 -1.9252628e-01
  7.1882510e-01
  1.1190613e-01
 -1.1757876e-01
  1.0022446e-01
 -1.7118948e+00
  1.9711899e+00
 -1.4586598e-01
  1.9700481e+00
  1.0681873e-01
  1.9602290e-01
 -9.7893131e-01
 -1.1044638e+00
  1.2512329e-01
  1.3309871e+00
 -1.2533058e+00
  1.0225312e-01
 -6.5357161e-01
 -1.6744226e+00
 -2.2861922e-01
  3.5858840e-01
  1.1232690e-01
  1.5574833e+00
 -1.5057173e+00
  2.2065209e-01
 -3.9348114e-01
  3.1923306e+00
 -2.4028811e+00
 -3.8611758e-01
  1.0465569e-01
 -1.2000056e-01
 -6.4893608e+00
  4.0256143e+00
  1.0986853e-01
 -2.0414223e-01
  1.3239937e+00
 -1.4848300e+00
 -1.6063997e+00
  9.7770768e-01
 -1.0577818e+00
  2.1806343e-01
 -1.0098006e-01
  7.0951116e-01
 -1.2762989e+00
 -1.2786334e+00
  1.0200792e-01
  1.9087321e-01
 -2.4676638e+00
  6.1100566e-01
 -6.1624825e-01
  1.2145081e-01
 -3.8952640e-01
  3.5259235e-01
 -8.5084176e-01
  1.3888031e-01
 -1.0978200e+00
  1.2582830e+00
 -6.7937404e-01
 -1.3800637e-01
 -2.0354564e+00
 -1.6816690e+00
  2.7334490e-01
  1.5656980e+00
 -1.6897825e+00
 -1.8955432e+00
 -6.4122868e-01
 -1.0016775e-01
  5.8671170e-01
  3.5033315e-01
 -8.6050904e-01
 -2.7339596e-01
 -2.1842152e-01
  8.9101273e-01
 -1.0059615e-01
  1.0182647e-01
 -2.3552281e-01
 -5.6809008e-01
 -1.8281183e-01
 -1.0006976e-01
  2.1613607e+00
  1.9293194e+00
  1.6780313e+00
  6.9569993e-01
  4.1778478e-01
  1.3421891e+00
  8.9113808e-01
 -9.2067128e-01
 -4.0610757e+00
  2.2117360e+00
 -8.2332796e-01
 -8.3372420e-01
  1.4796591e+00
  2.7105182e-01
  1.3651241e-01
  2.0638599e+00
  2.2010806e-01
  3.1896544e-01
  1.0870042e-01
 -9.9672812e-01
 -2.0876288e-01
  1.5730027e+00
  1.0904074e-01
 -1.0487770e-01
 -3.2546562e-01
 -1.2819551e-01
  1.0057139e-01
 -4.8657569e-01
 -4.4687322e-01
 -8.2514077e-01
  7.8584182e-01
  8.8273501e-01
 -7.5155586e-01
 -1.9579616e+00
 -1.6759893e-01
  6.6173536e-01
 -1.9252954e+00
 -1.4111741e+00
 -8.6633784e-01
  9.7031713e-01
  1.1101139e-01
  2.9809585e+00
 -1.1887000e+00
 -5.2842230e-01
 -1.2381778e+00
  2.2716949e+00
  1.0037762e-01
  2.0997858e+00
 -2.5577490e+00
 -2.0448675e+00
 -9.7661865e-01
 -5.2935123e-01
  1.8408820e-01
  8.4345108e-01
  9.8601806e-01
 -3.7712617e+00
 -1.4662189e+00
  5.1881385e-01
  8.1218058e-01
 -1.0470090e+00
 -2.9509413e+00
 -1.5378249e+00
 -1.2222091e+00
 -5.2575141e-01
  1.0191946e-01
 -6.6596955e-01
  1.0027909e-01
 -1.6073244e+00
  1.7929409e+00
 -4.6729451e-01
  1.4904401e-01
  9.8294473e-01
  9.1553569e-01
 -3.2626995e-01
  7.6514930e-01
 -1.7616919e-01
  2.9456801e+00
  1.0376258e-01
 -1.4746122e+00
 -1.3203512e+00
 -1.6854202e+00
  2.2509964e+00
  1.0165942e-01
  1.4152199e-01
  6.6089535e-01
 -9.2472571e-01
  2.0362337e+00
  9.1813833e-01
 -1.5139443e+00
  9.3531442e-01
 -9.3200082e-01
 -4.9451712e-01
  1.6891077e+00
  1.2411816e+00
 -3.1002021e-01
 -9.7010881e-01
  1.0398302e+00
 -9.3801904e-01
  8.9322758e-01
 -1.2050973e+00
  1.7952183e+00
  6.4344543e-01
  1.0098349e-01
 -1.4175634e+00
 -1.9644797e-01
 -2.0245268e+00
 -3.6783952e-01
  3.2604599e-01
  1.1283120e-01
 -7.0920116e-01
  1.5248246e+00
  2.4828315e+00
  1.0011612e-01
 -3.5522070e+00
  2.4185526e+00
  1.7889579e-01
 -3.7625173e-01
 -2.8158054e-01
 -5.9623909e-01
  1.5421557e+00
 -2.4245827e+00
 -1.1204748e+00
 -7.7781856e-01
 -1.2264633e+00
 -3.1927075e+00
  1.7504663e+00
  1.2425653e-01
 -2.4600837e-01
 -1.1131604e-01
 -2.2759516e+00
 -1.0139578e-01
 -1.5841838e+00
  3.7866041e-01
  3.0800089e-01
  1.8874725e+00
 -1.2584620e+00
 -1.2193738e+00
 -1.0392723e+00
 -1.3450983e-01
 -8.1695884e-01
  7.3039985e-01
 -1.5717711e-01
 -1.0015062e-01
  8.1595403e-01
 -3.0320919e+00
  3.8779802e+00
 -1.0642528e-01
  2.3290873e-01
  8.4704590e-01
  2.7071271e+00
 -1.0079168e-01
 -1.7209932e+00
 -1.8354948e+00
 -2.1578693e-01
  1.5100446e+00
 -3.7896862e+00
 -2.9027958e+00
  9.0769446e-01
  3.5828376e-01
 -3.9141548e-01
 -2.9592628e+00
  2.7868412e+00
  7.5293648e-01
  5.5361485e-01
 -1.2517096e+00
 -1.1560487e+00
  1.3054477e+00
 -9.0581733e-01
  2.5729325e-01
  6.5097922e-01
  1.0374071e-01
  1.4211508e+00
 -1.0050142e+00
 -1.0066559e-01
  2.7684715e-01
  2.2153413e-01
  8.4733754e-01
  1.5391283e-01
 -9.3385482e-01
 -9.1345948e-01
  5.0673699e-01
 -1.7464286e+00
 -7.4674809e-01
 -4.5967233e-01
 -1.2594833e+00
 -1.0138915e-01
  1.8263221e-01
  2.4142938e+00
  2.6469806e-01
 -3.5864696e-01
 -2.3894814e-01
 -2.5077202e+00
  4.4082162e-01
  3.6540656e+00
  9.5420521e-01
  1.6528654e+00
  3.2220087e+00
 -1.1661909e+00
  1.1278815e+00
  3.0821111e+00
  4.5260638e-01
 -1.0440255e+00
  2.7879863e+00
  4.2835233e-01
 -4.4934124e-01
 -2.0000257e+00
 -6.3636273e-01
  9.4105732e-01
  6.6965896e-01
  1.2326348e+00
  3.7139583e+00
 -1.1443768e+00
 -9.3412465e-01
  1.3011807e-01
  1.1745866e-01
 -5.5446124e-01
 -1.0245966e-01
  1.0165565e-01
 -1.9864271e+00
  2.4904678e+00
 -2.4521401e+00
  3.1920183e+00
  7.6626134e-01
 -1.0192463e-01
 -1.9546369e-01
  1.0268001e-01
  1.6109678e+00
 -1.5788609e+00
 -2.7679816e-01
  2.8331518e+00
 -1.8536851e-01
  1.1830260e+00
 -1.7156510e+00
 -1.3324596e+00
 -3.8936895e-01
  1.1957233e+00
 -1.2083412e+00
  1.3173788e+00
 -5.5464166e-01
 -1.2376463e+00
 -1.1627047e+00
  6.4337903e-01
 -1.8800231e+00
 -1.1072974e-01
  8.0985159e-01
  3.2805524e+00
  2.6041031e-01
 -6.2460005e-01
  7.6915669e-01
  1.0011952e-01
 -1.0191118e+00
  1.6729475e+00
  3.1125191e-01
  1.6081350e+00
  1.6632122e-01
  1.3955328e-01
  1.3248497e+00
 -3.2017801e+00
 -1.1177539e-01
 -4.6755999e-01
  9.8764729e-01
  1.3236376e+00
 -9.8248774e-01
 -9.7788727e-01
 -1.1519428e+00
  1.7252671e+00
 -1.8167696e+00
 -5.7826352e-01
  2.4350959e-01
  2.0601149e+00
 -3.3414009e-01
 -6.4947593e-01
 -1.7690477e-01
 -1.6989633e+00
  1.0622935e+00
 -1.5891021e+00
  6.6813356e-01
 -1.9012575e-01
  5.3494686e-01
  1.1022864e-01
 -2.3608494e-01
  1.8333772e-01
  1.9308385e-01
  8.6833119e-01
 -1.9519093e+00
  6.7140895e-01
 -1.1481469e+00
  3.8626140e-01
  4.0992895e-01
 -1.4507146e+00
 -1.2993964e+00
 -1.7221819e+00
 -1.0730851e+00
  1.3084115e+00
  2.3165138e+00
 -3.8059995e+00
  7.5977486e-01
  2.6172633e+00
 -1.0545611e-01
 -9.2253768e-01
 -1.1456666e+00
 -1.0036889e-01
 -1.0408828e-01
 -1.1148637e-01
 -1.7571353e+00
 -1.0105126e-01
 -1.3542171e+00
 -1.6887534e-01
  1.5494787e+00
  2.3392084e+00
 -3.6858818e-01
 -6.8574703e-01
  8.9797848e-01
 -1.6901985e+00
 -1.0624858e-01
 -2.0944595e-01
  3.5652468e-01
  1.0849835e+00
 -5.0004053e-01
  1.1086838e-01
  1.0082570e-01
 -1.0279635e+00
 -1.0027785e-01
  2.5769380e-01
 -1.2168006e+00
 -4.9405921e-01
 -4.8463741e-01
  1.0169778e-01
 -9.2688894e-01
  5.3760791e-01
 -1.4337309e-01
  6.8198794e-01
 -1.5406103e-01
  2.5633671e+00
  6.6143209e-01
 -2.1598208e-01
  1.1014206e+00
 -4.4849247e-01
  1.0483266e-01
  5.2283394e-01
  2.1908781e-01
 -1.0347684e-01
  1.1909288e-01
  1.1037762e-01
  1.1371049e+00
  1.0492551e-01
  6.7301255e-01
 -1.0182860e-01
  1.3918456e+00
  1.0792758e-01
 -9.2547363e-01
  1.0744938e-01
  3.4766978e-01
 -1.2117648e-01
 -1.1587591e-01
  8.2555902e-01
 -1.0075033e-01
 -7.5472134e-01
  1.0220343e-01
  3.7690601e-01
 -1.5795077e+00
  1.0186616e-01
 -5.1474953e-01
  2.2451523e-01
 -1.0028693e-01
 -8.7733388e-01
  6.5813035e-01
  1.2846068e+00
  7.3799843e-01
  1.0035814e-01
  2.7098915e-01
  2.1132095e+00
  2.0311372e+00
 -1.0053309e-01
  1.0398504e-01
  8.5984641e-01
  1.4455144e+00
 -2.1505949e+00
  7.7303785e-01
 -1.5118455e+00
 -3.0610411e+00
  3.9475134e-01
  3.4784651e-01
 -1.0103610e-01
 -2.1509072e-01
  4.6024978e-01
  4.7071061e-01
 -2.7286353e+00
  1.6502097e+00
 -6.5881312e-01
  3.4624112e-01
 -1.4702644e+00
  1.4270808e+00
 -6.0417104e-01
  2.1270168e-01
  9.3842405e-01
  6.1431551e-01
 -1.1988735e+00
  5.3040737e-01
  1.3933978e+00
 -2.8918040e-01
 -5.4963082e-01
  2.6188645e-01
 -1.0198397e-01
 -2.1919453e-01
 -1.2110579e+00
 -9.9428231e-01
  1.7005140e-01
 -7.2463596e-01
 -6.1448830e-01
 -1.0024382e-01
 -1.5700929e+00
  1.1121602e+00
  1.0687535e-01
 -1.3089411e+00
  1.0056531e+00
  4.0654039e+00
 -4.0118530e-01
 -5.5909449e-01
  3.8616738e-01
  2.2387786e+00
 -5.8088702e-01
  3.9654294e-01
 -1.1398643e+00
 -1.2453074e+00
 -4.1825855e-01
  3.1447527e+00
 -1.0948203e-01
 -6.8652654e-01
  2.8772286e-01
  1.3382200e+00
  2.0964117e+00
 -2.6436380e-01
 -4.1011047e-01
 -1.5640453e+00
  1.4623801e+00
 -1.3042723e+00
 -9.7027826e-01
 -1.7026684e+00
  1.7119017e-01
 -5.3717428e-01
 -8.9712095e-01
 -9.3506348e-01
  1.2115797e-01
 -1.6067016e+00
  4.1469306e-01
 -2.3983309e-01
  3.6141843e-01
  1.2960629e+00
 -1.1088049e-01
  1.0954829e+00
 -1.0725912e-01
  1.9380493e+00
 -5.2222729e-01
 -2.8134396e+00
 -3.0406740e+00
  6.8025655e-01
 -7.1390271e-01
  1.3385805e-01
  1.9665582e-01
  1.0091526e-01
 -1.0015123e-01
 -2.5602820e+00
  1.6159672e-01
  9.7276068e-01
 -1.1793239e+00
 -6.3913465e-01
  2.3852053e+00
  8.8939965e-01
  4.2556369e-01
  2.3501703e-01
 -4.0364742e-01
  1.2392813e+00
 -2.0367123e-01
 -6.9242984e-01
  1.0036002e-01
  4.3251684e-01
  3.9100161e-01
  1.0472348e+00
 -3.5268578e-01
  1.7785695e+00
  5.6862301e-01
 -1.0729045e-01
 -4.3496025e-01
 -1.3846910e+00
 -1.2408027e-01
  9.3823993e-01
  3.8773632e-01
  1.6140925e+00
 -1.3487794e-01
 -1.3719012e-01
 -8.7730223e-01
 -6.5320003e-01
 -4.8719391e-01
  7.1224612e-01
  1.1782180e+00
 -1.8008289e+00
  1.0317894e-01
  3.4758216e-01
  1.3392506e+00
 -2.6732357e+00
  1.7711002e+00
 -1.0504809e-01
 -1.1894818e-01
 -1.4406689e+00
  2.8614500e-01
 -1.0447513e-01
 -7.0869958e-01
  1.9732869e-01
 -1.0014939e-01
 -3.5021961e-01
 -9.2750621e-01
 -1.0083839e-01
 -4.2972586e-01
 -6.2093294e-01
  8.0922371e-01
  6.6248327e-01
 -2.1693140e-01
 -1.0348509e-01
  1.0165684e+00
 -6.5915275e-01
 -4.3604970e+00
 -5.9502804e-01
 -1.1398034e+00
 -1.0880240e+00
 -1.0073965e-01
 -4.5405751e-01
 -1.5340898e+00
  1.2650728e+00
 -8.7917286e-01
 -1.7331775e-01
  1.6144068e+00
  2.8092146e+00
 -2.0478530e+00
  1.0180678e-01
  1.0852518e-01
  3.1390506e-01
  2.4308286e+00
 -8.0712533e-01
 -3.6847508e-01
 -1.3529088e+00
 -1.5288877e+00
  1.3417107e+00
  1.6740944e+00
 -6.6641909e-01
 -1.5574841e+00
 -4.0817583e-01
  1.4680533e+00
  1.5073331e-01
 -2.4397469e+00
 -1.2991591e-01
 -1.5373621e+00
 -3.0907857e+00
  1.0264531e-01
 -1.1314570e-01
 -1.0976077e-01
  1.6420490e+00
 -1.0208050e-01
  1.0181268e-01
  1.2813386e-01
 -1.2417756e+00
 -1.0892473e-01
 -1.1431915e-01
 -2.4260876e-01
 -1.6504964e-01
 -1.3355803e+00
 -1.0009141e-01
 -1.0007154e-01
 -1.0154032e+00
  9.3215954e-01
  1.1507762e-01
 -1.0063307e-01
 -9.2725497e-01
 -2.1312230e+00
 -1.0447080e-01
  6.7181748e-01
  1.3546432e+00
 -6.8096679e-01
  1.0201631e-01
  1.7321416e+00
  1.4300311e+00
  1.0942786e+00
 -1.1388720e-01
  1.0925002e+00
  6.3476658e-01
  1.4192351e+00
  1.1500373e+00
 -1.1626556e+00
  1.3818977e+00
 -1.2850478e-01
 -1.0244983e-01
 -2.3787865e-01
 -6.3561881e-01
  1.0209192e-01
  1.1880875e-01
 -6.8089497e-01
 -1.1609948e+00
  2.2408755e+00
  1.0272032e-01
  1.2119782e-01
  2.5072271e-01
 -1.5985864e+00
  1.6425270e-01
  2.4703889e+00
 -1.3152391e+00
 -1.0022131e-01
 -9.4819355e-01
 -2.5226566e-01
 -1.7330548e+00
  1.6381982e-01
 -1.0253519e-01
  1.0108744e-01
 -1.4902509e+00
  1.4574251e+00
 -1.0082691e-01
  8.7326741e-01
 -6.7473209e-01
  1.3000853e+00
  1.3389398e+00
  1.2987467e+00
 -1.4205815e+00
  2.1884820e-01
  5.7015862e-02
  5.7015862e-02
  5.7015862e-02
  5.7015862e-02
  5.7015862e-02
  5.7015862e-02
  5.7015862e-02
  5.7015862e-02
  5.7015862e-02
  5.7015862e-02
  5.7015862e-02
  3.5099441e-01
  3.5099441e-01
  3.5099441e-01
  3.5099441e-01
  3.5099441e-01
  3.5099441e-01
  3.5099441e-01
  3.5099441e-01
  3.5099441e-01
  1.1402448e-01
  1.1402448e-01
  1.1402448e-01
  1.1402448e-01
  1.1402448e-01
  1.1402448e-01
  1.1402448e-01
  1.1402448e-01
  1.1402448e-01
  3.1370800e-02
  3.1370800e-02
  3.1370800e-02
  3.1370800e-02
  3.1370800e-02
  3.1370800e-02
  3.1370800e-02
  3.1370800e-02
  3.1370800e-02
  1.4356262e-02
  1.4356262e-02
  1.4356262e-02
  1.4356262e-02
  1.4356262e-02
  1.4356262e-02
  1.4356262e-02
  1.4356262e-02
  1.4356262e-02
  1.5703431e-01
  1.5703431e-01
  1.5703431e-01
  1.5703431e-01
  1.5703431e-01
  1.5703431e-01
  1.5703431e-01
  1.5703431e-01
  1.5703431e-01
